svm_type nu_svc
kernel_type rbf
gamma 0.0078125
nr_class 10
total_sv 424
rho 0.12339 0.0105658 -0.268985 -0.14081 -0.327839 -0.251584 -0.0256636 -0.335346 -0.15353 0.0566307 -0.226081 -0.467002 -0.257939 -0.138733 -0.407741 -0.303453 -0.0846408 -0.0100002 -0.112578 -0.126283 -0.186804 -0.0273072 -0.17115 -0.200696 -0.0809624 -0.0221362 -0.0705526 -0.00273958 -0.33562 0.0969618 -0.157405 -0.155688 0.0205984 -0.205459 -0.00437275 0.0125555 0.0506433 -0.180832 0.161667 0.106189 -0.233645 0.0347906 -0.112614 -0.103423 0.197422
label 0 1 2 3 4 5 6 7 8 9
probA -4.6193 -4.74179 -4.29811 -4.33118 -4.41599 -4.59589 -4.55074 -4.45785 -4.42358 -4.65772 -4.32746 -4.27757 -4.32079 -4.48769 -6.82532 -4.40876 -4.39167 -4.40008 -4.8066 -4.53017 -4.74117 -4.48857 -4.4492 -4.81308 -4.5922 -4.42526 -4.34318 -4.2785 -4.27538 -4.42039 -4.48169 -4.70453 -4.3458 -4.55203 -4.84385 -4.27222 -4.23522 -4.2401 -4.58012 -4.44001 -4.68448 -4.61412 -4.49003 -4.61562 -4.49057
probB -0.225722 -1.47816 -0.299631 -0.642586 -0.0974841 -0.532666 -0.840185 -0.208427 -0.622905 -1.59752 -0.265452 -0.344734 0.190125 -0.571068 -3.76808 0.348309 -0.347919 0.183484 0.349961 0.635107 0.712203 -0.0532526 0.368094 0.90412 0.100115 0.118912 -0.160833 -0.101515 -0.154151 -0.223169 0.441703 0.33334 -0.194816 0.67165 0.183867 0.0595841 -0.402384 -0.379754 -0.626407 -0.588729 0.378894 -0.139997 0.901704 0.535368 0.134092
nr_sv 38 39 43 42 44 45 47 41 41 44
SV
4.119067616120173 3.104046471462632 0 3.81238234102082 0 0 2.941464952362451 2.612062692978952 4.597793904681048 1:0.0395492 2:0.0394246 3:0.0522666 4:2.43162e-005 5:0.000324968 6:0 7:0 8:0 9:0.0158121 10:0.221134 11:0.223442 12:0.0909649 13:0 14:0.000123484 15:0 16:0 17:0 18:0.139147 19:0.19525 20:0.0616268 21:0.0337862 22:0 23:0.00017138 24:0 25:0 26:0 27:0.174166 28:0.245656 29:0.260832 30:0.260832 31:0.00554286 32:0.00146075 33:0.000593424 34:0.000730365 35:0.0018074 36:0.110579 37:0.260832 38:0.260832 39:0.260832 40:0 41:0.00057241 42:0 43:0 44:0 45:0.260832 46:0.260832 47:0.157337 48:0.0281501 49:0 50:0.000157465 51:0 52:0 53:0 54:0.212519 55:0.0978056 56:0.0600548 57:0.0590065 58:0.00986181 59:0.00112005 60:0.00356055 61:0.0380458 62:0.0318691 63:0.0702996 64:0.234429 65:0.120952 66:0.0201564 67:0 68:0.000172168 69:0 70:0 71:0 72:0.170735 73:0.161976 74:0.120241 75:0.0309857 76:0 77:6.52627e-005 78:0 79:4.79268e-005 80:1.60164e-005 81:0.083114 82:0.118346 83:0.0930093 84:0.0366082 85:0 86:9.55486e-005 87:0 88:0 89:0 90:0.0852355 91:0.24715 92:0.0809098 93:0.038743 94:0 95:0.000332483 96:0 97:0.00362149 98:0.0116999 99:0.24715 100:0.162172 101:0.0118756 102:0.00734967 103:0.00109617 104:0.000155095 105:0 106:0.0575471 107:0.10439 108:0.169475 109:0.24715 110:0.20227 111:0.0626945 112:0 113:0.000160154 114:0 115:0 116:0 117:0.149771 118:0.24715 119:0.23431 120:0.0645179 121:0 122:0.000350137 123:0 124:0.00144859 125:0.00467995 126:0.24715 127:0.24715 128:0.101698 129:0.12839 130:0.0220842 131:0.0025274 132:0.00970838 133:0.108688 134:0.106634 135:0.192359 136:0.108963 137:0.0643968 138:0.005261 139:0 140:5.56048e-005 141:0 142:0 143:0 144:0.0723737 145:0.24715 146:0.24715 147:0.132442 148:0 149:0.000150079 150:0 151:0.00021522 152:7.19229e-005 153:0.14608 154:0.167358 155:0.184725 156:0.24715 157:0.00705621 158:0.000888689 159:0 160:0.000161415 161:0.00189237 162:0.0507782 163:0.0984111 164:0.125115 165:0.141305 166:0.00595811 167:0.000828521 168:0.00100338 169:0.00123493 170:0.00142648 171:0.0457495 172:0.19005 173:0.141489 174:0.0772498 175:0 176:0.000211371 177:0 178:0 179:0 180:0.101241 181:0.0858301 182:0.0457775 183:0.00991041 184:0 185:2.94341e-005 186:0 187:0 188:0 189:0.0543192 190:0.259829 191:0.066733 192:0.0614778 193:0.0128518 194:0.00157696 195:0.00602029 196:0.11377 197:0.130445 198:0.233496 199:0.279979 200:0.279979 201:0.0693215 202:0 203:0.000493326 204:0 205:0.00254815 206:0.00837909 207:0.279979 208:0.279979 209:0.279979 210:0.0835046 211:0 212:0.000163879 213:0 214:0.000104466 215:3.49109e-005 216:0.230921 217:0.134541 218:0.00642554 219:0.00364988 220:0.00045845 221:0.00013487 222:0 223:0.0363261 224:0.081189 225:0.143974 226:0.279979 227:0.0536584 228:0.0410398 229:0 230:0.00033484 231:0 232:0.00339753 233:0.0111721 234:0.279979 235:0.144195 236:0.0855152 237:0.0364936 238:0 239:9.3475e-005 240:0 241:0 242:0 243:0.0981707 244:0.0787381 245:0.0494201 246:0.0168512 247:0 248:4.15762e-005 249:0 250:0 251:0 252:0.0415409 253:0.168081 254:0.0920191 255:0.0404333 256:0 257:0.000105111 258:0 259:0 260:0 261:0.105368 262:0.113963 263:0.0867594 264:0.113375 265:0.011976 266:0.00119628 267:0.00366653 268:0.0245009 269:0.0166092 270:0.0563696 271:0.286097 272:0.173758 273:0.0347363 274:0 275:0.000198301 276:0 277:0 278:0 279:0.24586 280:0.286097 281:0.286097 282:0.286097 283:0 284:0.000215371 285:0 286:0.000480917 287:0.000160714 288:0.286097 289:0.283573 290:0.286097 291:0.286097 292:0.00541709 293:0.00150925 294:0 295:0.000360688 296:0.001608 297:0.0784654 298:0.148744 299:0.0355053 300:0.0310383 301:0 302:0.000141043 303:0 304:0 305:0 306:0.141626 307:0.229354 308:0.169591 309:0.0629964 310:0 311:5.64174e-005 312:0 313:0 314:0 315:0.118956 316:0.036491 317:0.0348007 318:0.0391796 319:0 320:0.000206613 321:0 322:0 323:0 324:0.00848046 
4.119067616120173 3.104046471462632 3.186210962051391 3.81238234102082 1.674711312865873 0 2.941464952362451 3.725626546919854 0 1:0.080602 2:0.0753615 3:0.0584743 4:0.000153668 5:0 6:0 7:0 8:0 9:0.0362086 10:0.256654 11:0.0768223 12:0.0437086 13:0 14:0 15:0 16:0 17:0 18:0.202413 19:0.136971 20:0 21:0 22:0 23:8.08249e-005 24:0 25:0.00643535 26:0.0214524 27:0.142082 28:0.293768 29:0.152336 30:0.144048 31:0.0324476 32:0.0153681 33:0.00643112 34:0.00761102 35:0.00998984 36:0.209274 37:0.293768 38:0.0585699 39:0.0257214 40:0 41:0.000230542 42:0 43:0.000563672 44:0.00202187 45:0.293768 46:0.293768 47:0 48:0 49:0 50:6.06187e-005 51:0 52:0.00257414 53:0.00858097 54:0.293768 55:0.124814 56:0.0159391 57:0.0154848 58:0.0147971 59:0.012815 60:0.0158957 61:0.0511326 62:0.0602253 63:0.145387 64:0.293768 65:0.00348421 66:0.000971353 67:0 68:0.000200637 69:0 70:0.00338203 71:0.0121972 72:0.293768 73:0.20528 74:0 75:0 76:0 77:0 78:0 79:0 80:0 81:0.20528 82:0.121431 83:0.0143515 84:0.0100484 85:0 86:0 87:0 88:0 89:0 90:0.107873 91:0.20448 92:0 93:0 94:0 95:0.000172059 96:0 97:0.0309568 98:0.0922134 99:0.245224 100:0.030383 101:0 102:0 103:0 104:0 105:0.000205467 106:0.0748529 107:0.0964954 108:0.0975182 109:0.286887 110:0.00574062 111:0.00401935 112:0 113:0 114:0 115:0 116:0 117:0.286887 118:0.286887 119:0.0024253 120:0.000690497 121:0 122:0.000188359 123:0 124:0.0303288 125:0.0759199 126:0.286887 127:0.23069 128:0.0124547 129:0.00985591 130:0.00880899 131:0.0205987 132:0.0442321 133:0.187462 134:0.189044 135:0.286887 136:0.168754 137:0 138:0 139:0 140:0 141:0 142:0 143:0 144:0.168754 145:0.286887 146:0.0146305 147:0.00414299 148:0 149:0.000148286 150:0 151:0.00251325 152:0.0051539 153:0.286887 154:0.177407 155:0.0737178 156:0.0684911 157:0.0281539 158:0.0150885 159:0.0200638 160:0.0202572 161:0.0194913 162:0.151591 163:0.121519 164:0.046148 165:0.0447723 166:0.0198297 167:0.0102267 168:0.00712814 169:0.0108225 170:0.0156411 171:0.0954472 172:0.286746 173:0.00973154 174:0.00270032 175:0 176:0.000172927 177:0 178:0.00092982 179:0.00333523 180:0.286746 181:0.165646 182:0 183:0 184:0 185:0 186:0 187:0 188:0 189:0.165646 190:0.209445 191:0.00780283 192:0.00875117 193:0.0108976 194:0.015958 195:0.0227071 196:0.141354 197:0.162682 198:0.286746 199:0.286746 200:0.00161433 201:0.000450054 202:0 203:0.000356946 204:0 205:0.0216481 206:0.0681763 207:0.286746 208:0.286746 209:0.0102117 210:0.00306333 211:0 212:6.95683e-005 213:0 214:0 215:0 216:0.286746 217:0.0313719 218:0 219:0 220:0 221:0 222:0.000161424 223:0.0671083 224:0.0940025 225:0.0968951 226:0.25716 227:0 228:0 229:0 230:0.00019872 231:0 232:0.0332591 233:0.100533 234:0.286746 235:0.171978 236:0.0255292 237:0.00765833 238:0 239:9.27578e-005 240:0 241:0 242:0 243:0.165887 244:0.135644 245:0 246:0 247:0 248:0 249:0 250:0 251:0 252:0.135644 253:0.281157 254:0.00398532 255:0.00113464 256:0 257:7.56066e-005 258:0 259:0.00695984 260:0.0143266 261:0.281157 262:0.111945 263:0.0193572 264:0.0138915 265:0.00973179 266:0.0135992 267:0.0268728 268:0.058352 269:0.0565364 270:0.145684 271:0.281157 272:0 273:0 274:0 275:5.34171e-005 276:0 277:0.0021875 278:0.00742228 279:0.281157 280:0.281157 281:0.0765129 282:0.0246258 283:0 284:0.000336542 285:0 286:0.00115997 287:0.00237875 288:0.281157 289:0.281157 290:0.194798 291:0.18058 292:0.0511133 293:0.0182893 294:0.0147089 295:0.0114561 296:0.00953464 297:0.245524 298:0.137501 299:0 300:0 301:0 302:7.12227e-005 303:0 304:0.00546875 305:0.0185557 306:0.141858 307:0.281157 308:0.108343 309:0.036352 310:0 311:0.000196701 312:0 313:0 314:0 315:0.246233 316:0.112601 317:0.108998 318:0.0781297 319:0.00622266 320:0.000937619 321:0 322:0 323:0 324:0.035376 
4.119067616120173 1.923763576561451 0 3.81238234102082 0 0 2.941464952362451 0 0 1:0.049591 2:0.0407622 3:0.0503939 4:0.00178771 5:0.000121318 6:0 7:0 8:0 9:0.011401 10:0.259234 11:0.175185 12:0.139362 13:0.000692207 14:0.000366574 15:0 16:0 17:0 18:0.14376 19:0.214765 20:0.0903034 21:0.032191 22:0 23:0.000280564 24:0 25:0 26:0 27:0.175839 28:0.240707 29:0.275773 30:0.275773 31:0.0112044 32:0.0108053 33:0.00248846 34:0 35:0.00168009 36:0.0732784 37:0.275773 38:0.275773 39:0.270528 40:0.00244117 41:0.00103354 42:0 43:0 44:0 45:0.275773 46:0.275773 47:0.201001 48:0.0409087 49:0 50:0.000704079 51:0 52:0 53:0 54:0.176246 55:0.065934 56:0.073125 57:0.0823545 58:0.00761806 59:0.0155104 60:0.0111428 61:0.0107913 62:0.0304109 63:0.0442799 64:0.167035 65:0.101682 66:0.0243936 67:0 68:0.000435024 69:0 70:0 71:0.00103735 72:0.0979633 73:0.127079 74:0.111962 75:0.0251977 76:0 77:0.000285712 78:0 79:0 80:0 81:0.0488334 82:0.13152 83:0.0927139 84:0.0528523 85:0 86:0.000240092 87:0 88:0 89:0 90:0.0850724 91:0.247309 92:0.11458 93:0.0383085 94:0 95:0.000346208 96:0 97:0.00429278 98:0.0120626 99:0.247309 100:0.15115 101:0.0123721 102:0.00585808 103:0.000661542 104:0.000579059 105:0.00650815 106:0.0650534 107:0.127503 108:0.175933 109:0.247309 110:0.247309 111:0.0738133 112:0 113:0.000564133 114:0 115:0 116:0 117:0.127173 118:0.247309 119:0.247309 120:0.069985 121:0 122:0.00115958 123:0 124:0.00171711 125:0.00837325 126:0.247309 127:0.180422 128:0.0863428 129:0.130802 130:0.013719 131:0.028579 132:0.0333525 133:0.0721273 134:0.164633 135:0.185049 136:0.077055 137:0.056835 138:0.0091456 139:0 140:0.000230409 141:0 142:0 143:0 144:0.0390295 145:0.247309 146:0.247309 147:0.0951715 148:0.000979169 149:0.00046577 150:0 151:0 152:0 153:0.0991123 154:0.132155 155:0.24258 156:0.247309 157:0.0102085 158:0.0173858 159:0.00328779 160:0 161:0 162:0.0441333 163:0.0983852 164:0.172984 165:0.153756 166:0.00675635 167:0.0104805 168:0.00208575 169:0 170:0.00104106 171:0.0314575 172:0.218223 173:0.198015 174:0.0673921 175:0.000649724 176:0.000310353 177:0 178:0 179:0 180:0.0830165 181:0.0732481 182:0.0513641 183:0.00861493 184:0 185:0.000224186 186:0 187:0 188:0 189:0.037908 190:0.165233 191:0.0705026 192:0.0870195 193:0.00960196 194:0.0193297 195:0.0257619 196:0.0620367 197:0.145919 198:0.172052 199:0.269961 200:0.269961 201:0.0729934 202:0 203:0.00121068 204:0 205:0.00172381 206:0.00810121 207:0.269961 208:0.269961 209:0.269961 210:0.104277 211:0 212:0.000848957 213:0 214:0 215:0 216:0.172989 217:0.16053 218:0.0132901 219:0.00618497 220:0.000534203 221:0.00048429 222:0.00565094 223:0.0601226 224:0.119217 225:0.182905 226:0.269961 227:0.137129 228:0.0452268 229:0 230:0.000426487 231:0 232:0.00430952 233:0.0122662 234:0.269961 235:0.187657 236:0.122095 237:0.0775458 238:0 239:0.000418723 240:0 241:0 242:0 243:0.136399 244:0.0779549 245:0.0675775 246:0.0144997 247:0 248:0.000169378 249:0 250:0 251:0 252:0.0309083 253:0.12554 254:0.0771414 255:0.0224561 256:0 257:0.000364046 258:0 259:0 260:0.000908383 261:0.0720747 262:0.0652454 263:0.075841 264:0.107795 265:0.00875105 266:0.018934 267:0.0118592 268:0.0105825 269:0.0274859 270:0.0427581 271:0.26171 272:0.176207 273:0.0340043 274:0 275:0.000609699 276:0 277:0 278:0 279:0.154972 280:0.283266 281:0.283266 282:0.283266 283:0.00292344 284:0.00129807 285:0 286:0 287:0 288:0.283266 289:0.256874 290:0.283266 291:0.283266 292:0.0137435 293:0.0147341 294:0.00311164 295:0 296:0 297:0.0786134 298:0.201638 299:0.0809001 300:0.0280401 301:0 302:0.000272144 303:0 304:0 305:0 306:0.168398 307:0.27279 308:0.184245 309:0.168606 310:0.000859669 311:0.000550052 312:0 313:0 314:0 315:0.174297 316:0.0551981 317:0.0554793 318:0.0673366 319:0.00229597 320:0.000159462 321:0 322:0 323:0 324:0.0112043 
4.119067616120173 2.63803793733981 3.186210962051391 3.81238234102082 0 0 2.941464952362451 3.725626546919854 0 1:0.0794615 2:0.0639603 3:0.0694123 4:0.000232482 5:0.000526782 6:0 7:0 8:0 9:0.0417411 10:0.242936 11:0.0400902 12:0.0714146 13:0 14:0.00010666 15:0 16:0 17:0 18:0.23328 19:0.142137 20:0 21:0 22:0 23:1.68666e-005 24:0 25:0.0131829 26:0.00631899 27:0.14763 28:0.250533 29:0.191214 30:0.155242 31:0.0183378 32:0.0206361 33:0.00676561 34:0.01474 35:0.0181035 36:0.206878 37:0.295395 38:0.0358683 39:0.0372114 40:0 41:0.000492712 42:0 43:0.000636392 44:0.00147602 45:0.295395 46:0.295395 47:0 48:0 49:0 50:5.61911e-005 51:0 52:0.00527316 53:0.00252759 54:0.295395 55:0.108082 56:0.0277646 57:0.0202136 58:0.00790828 59:0.0143754 60:0.0131311 61:0.0637329 62:0.0864717 63:0.11685 64:0.295395 65:0.00254357 66:0.00109667 67:0 68:0.00032642 69:0 70:0.00381835 71:0.00920723 72:0.295395 73:0.206502 74:0 75:0 76:0 77:1.89442e-005 78:0 79:0 80:0 81:0.206502 82:0.114377 83:0.00706311 84:0.0164286 85:0 86:1.15196e-005 87:0 88:0 89:0 90:0.115488 91:0.224562 92:0 93:0 94:0 95:0.000119814 96:0 97:0.0567891 98:0.0385962 99:0.252296 100:0.0406739 101:0 102:0 103:0 104:0.000669401 105:0.000305083 106:0.0917037 107:0.0837573 108:0.0861088 109:0.283745 110:0.00282524 111:0.00657143 112:0 113:1.53594e-005 114:0 115:0 116:0 117:0.283745 118:0.283745 119:0.00174729 120:0.000776676 121:0 122:0.000513379 123:0 124:0.0451757 125:0.051464 126:0.283745 127:0.219832 128:0.02266 129:0.0189928 130:0.00904644 131:0.0277158 132:0.0247073 133:0.202749 134:0.229959 135:0.283745 136:0.167714 137:0 138:0 139:0 140:3.73132e-006 141:0 142:0 143:0 144:0.167714 145:0.283745 146:0.0109123 147:0.00466006 148:0 149:0.000356107 150:0 151:0.00333107 152:0.005108 153:0.283745 154:0.14003 155:0.108084 156:0.0815987 157:0.0176551 158:0.0193578 159:0.010583 160:0.0265237 161:0.0330739 162:0.131084 163:0.0933993 164:0.0683366 165:0.049781 166:0.0108907 167:0.0119686 168:0.00706608 169:0.0185874 170:0.0259656 171:0.0871075 172:0.288146 173:0.00727776 174:0.00303345 175:0 176:0.000272834 177:0 178:0.00104453 179:0.00242263 180:0.288146 181:0.165799 182:0 183:0 184:0 185:2.37833e-005 186:0 187:0 188:0 189:0.165799 190:0.197957 191:0.014681 192:0.0121996 193:0.00573843 194:0.0193606 195:0.0169952 196:0.162207 197:0.194502 198:0.245287 199:0.288146 200:0.00117261 201:0.000505574 202:0 203:0.000474496 204:0 205:0.0334009 206:0.0359677 207:0.288146 208:0.288146 209:0.00299289 210:0.00624389 211:0 212:3.27766e-005 213:0 214:0 215:0 216:0.288146 217:0.043416 218:0 219:0 220:0 221:0.000590258 222:0.000265471 223:0.0861171 224:0.0789924 225:0.0870755 226:0.281388 227:0 228:0 229:0 230:0.000115994 231:0 232:0.0619378 233:0.0406416 234:0.288146 235:0.177834 236:0.00748223 237:0.0156097 238:0 239:1.85737e-005 240:0 241:0 242:0 243:0.171329 244:0.133967 245:0 246:0 247:0 248:2.55073e-006 249:0 250:0 251:0 252:0.133967 253:0.278156 254:0.00285318 255:0.00126825 256:0 257:0.000282758 258:0 259:0.00917532 260:0.0143384 261:0.278156 262:0.0989074 263:0.0322512 264:0.0236951 265:0.00940884 266:0.0159915 267:0.0145626 268:0.0648395 269:0.0802846 270:0.11244 271:0.278156 272:0 273:0 274:0 275:1.68273e-005 276:0 277:0.00435554 278:0.00207136 279:0.278156 280:0.278156 281:0.0411686 282:0.0370264 283:0 284:0.000528999 285:0 286:0.00152778 287:0.00234277 288:0.278156 289:0.278156 290:0.240086 291:0.203594 292:0.0227888 293:0.0259761 294:0.00763271 295:0.0159529 296:0.0175661 297:0.228205 298:0.13966 299:0 300:0 301:0 302:1.26205e-005 303:0 304:0.0108888 305:0.00517839 306:0.144412 307:0.278156 308:0.0448677 309:0.0665995 310:0 311:0.000129555 312:0 313:0 314:0 315:0.268707 316:0.0994993 317:0.0941983 318:0.102629 319:0.000346589 320:0.00074713 321:0 322:0 323:0 324:0.047774 
0 0 0 0 0 4.008247806182232 0 0 0 1:0.0811364 2:0.08533 3:0.0482357 4:0.0101857 5:0.00424847 6:0 7:0 8:0 9:0.0568611 10:0.270794 11:0.0783057 12:0.0393588 13:0.0060313 14:0.00678331 15:0 16:0 17:0 18:0.270794 19:0.249161 20:0 21:0 22:0 23:0.00112066 24:0.0004802 25:0.00689017 26:0.00990933 27:0.253886 28:0.259742 29:0.201232 30:0.270794 31:0.050539 32:0.0139737 33:0.0101174 34:0.0241977 35:0.00667754 36:0.196948 37:0.270794 38:0.211514 39:0.139761 40:0.016553 41:0.0141442 42:0.00278099 43:0.000206699 44:0.000562946 45:0.270794 46:0.270794 47:0 48:0 49:0 50:0.00233865 51:0.0030776 52:0.0340761 53:0.0171288 54:0.270794 55:0.0567847 56:0.00946493 57:0.0341714 58:0.00701966 59:0.00524195 60:0.0227427 61:0.155514 62:0.0650676 63:0.0983792 64:0.142822 65:0 66:0.000356197 67:3.21898e-005 68:0.00298994 69:0.00488963 70:0.0511188 71:0.0196588 72:0.180481 73:0.0881536 74:0.00417617 75:0.0124081 76:0.00123876 77:0.000785565 78:0 79:0 80:0 81:0.0801209 82:0.204721 83:0.0146086 84:0.00561145 85:0.000809265 86:0.00126314 87:0 88:0 89:0 90:0.197788 91:0.277637 92:0 93:0 94:0 95:0.00514154 96:0.00570754 97:0.0479923 98:0.0622104 99:0.277637 100:0.0643731 101:0 102:0 103:0 104:0.00385616 105:0.0136106 106:0.0673096 107:0.1015 108:0.104565 109:0.277637 110:0.0520089 111:0.0306469 112:0.0034818 113:0.00306502 114:0.000999824 115:0 116:0.00015806 117:0.263149 118:0.277637 119:0 120:0.000256873 121:2.32139e-005 122:0.00963244 123:0.0161627 124:0.166276 125:0.0946703 126:0.277637 127:0.182924 128:0.00876353 129:0.0322276 130:0.0136618 131:0.0154553 132:0.070662 133:0.277637 134:0.236942 135:0.277637 136:0.067303 137:0 138:0 139:0 140:0.000571225 141:0.000884019 142:0.00882026 143:0.00300878 144:0.0730968 145:0.182499 146:0.0217791 147:0.0567711 148:0.00539822 149:0.00328887 150:4.00031e-005 151:0.00044266 152:0 153:0.140827 154:0.117205 155:0.0824832 156:0.196695 157:0.0303756 158:0.00662747 159:0.00953119 160:0.0453837 161:0.0125738 162:0.0683458 163:0.0715763 164:0.0509829 165:0.106312 166:0.0161758 167:0.00415087 168:0.00571249 169:0.0307689 170:0.00858906 171:0.0563895 172:0.127417 173:0.0481322 174:0.0347127 175:0.003707 176:0.00330722 177:0.000992872 178:0.000330726 179:0.000252994 180:0.10216 181:0.0561348 182:0 183:0 184:0 185:0.000609225 186:0.00090622 187:0.00892072 188:0.00293585 189:0.0626084 190:0.154448 191:0.00526783 192:0.0194211 193:0.00928961 194:0.0124166 195:0.0529862 196:0.287965 197:0.194419 198:0.271081 199:0.287965 200:0 201:0.000160079 202:1.44664e-005 203:0.00897037 204:0.0146703 205:0.150926 206:0.0892517 207:0.287965 208:0.287965 209:0.0179244 210:0.0341687 211:0.00305009 212:0.0022991 213:0 214:0 215:0 216:0.287965 217:0.0622634 218:0 219:0 220:0 221:0.00371407 222:0.0116206 223:0.0608388 224:0.091078 225:0.0974348 226:0.287965 227:0 228:0 229:0 230:0.00495209 231:0.00533937 232:0.0450266 233:0.0597046 234:0.287965 235:0.278643 236:0.0106714 237:0.00700472 238:0.00049713 239:0.00120303 240:0 241:0 242:0 243:0.275026 244:0.0508318 245:0.0126777 246:0.00809473 247:0.000873823 248:0.000754325 249:0.000345301 250:0 251:7.03707e-005 252:0.0434751 253:0.0992084 254:0 255:0.00040717 256:3.67963e-005 257:0.00238998 258:0.00388703 259:0.0406164 260:0.0150944 261:0.129383 262:0.0502568 263:0.0112443 264:0.0404649 265:0.00769003 266:0.00491538 267:0.0225806 268:0.148452 269:0.0601278 270:0.085074 271:0.284272 272:0 273:0 274:0 275:0.00161481 276:0.00214743 277:0.0240441 278:0.0126217 279:0.284272 280:0.284272 281:0.0988907 282:0.166274 283:0.0162377 284:0.00981641 285:1.781e-005 286:0.000197079 287:0 288:0.284272 289:0.284272 290:0.238535 291:0.284272 292:0.0689301 293:0.0151837 294:0.0124157 295:0.0256365 296:0.00694865 297:0.181682 298:0.226663 299:0 300:0 301:0 302:0.000828851 303:0.000342507 304:0.00490986 305:0.00745281 306:0.229206 307:0.284272 308:0.0667327 309:0.0501805 310:0.00607533 311:0.00546797 312:0 313:0 314:0 315:0.284272 316:0.111916 317:0.108061 318:0.0713309 319:0.0141714 320:0.00410098 321:0 322:0 323:0 324:0.0700144 
4.119067616120173 0 0 0 0 0 0 3.725626546919854 4.597793904681048 1:0.0790393 2:0.054554 3:0.0738589 4:0 5:0.000673594 6:0 7:0 8:0 9:0.0551563 10:0.276387 11:0.044044 12:0.064324 13:0 14:0.00162854 15:0 16:0 17:0 18:0.276387 19:0.210327 20:0 21:0 22:0 23:0.000491844 24:0 25:0.0174217 26:0.0113875 27:0.212485 28:0.270266 29:0.275881 30:0.214877 31:0.0220274 32:0.00413099 33:0.00500229 34:0.0092309 35:0.0153509 36:0.191886 37:0.276387 38:0.140785 39:0.178469 40:0 41:0.00247327 42:0 43:0.00013125 44:0.000569543 45:0.276387 46:0.276387 47:0 48:0 49:0 50:0.000655792 51:0 52:0.054306 53:0.0367733 54:0.276387 55:0.0659968 56:0.0169089 57:0.0126645 58:0.0055775 59:0.0022058 60:0.0149583 61:0.0825983 62:0.118576 63:0.107883 64:0.184557 65:0.000983811 66:0.000226179 67:0 68:0.000965894 69:0.00257 70:0.0377844 71:0.0422801 72:0.198007 73:0.108938 74:0.012355 75:0.01811 76:0 77:0.000159314 78:0 79:0 80:0 81:0.0993909 82:0.171948 83:0.00802775 84:0.0121132 85:0 86:0.000344037 87:0 88:0 89:0 90:0.170469 91:0.269771 92:0 93:0 94:0 95:0.00169785 96:0 97:0.0683275 98:0.0467254 99:0.269771 100:0.06153 101:0 102:0 103:0 104:0.000708947 105:0 106:0.0857472 107:0.0640211 108:0.0887485 109:0.269771 110:0.0262589 111:0.0386202 112:0 113:0.000467317 114:0 115:0 116:0 117:0.269771 118:0.269771 119:0.000678009 120:0.000152571 121:0 122:0.00256904 123:0 124:0.1861 125:0.149057 126:0.269771 127:0.219779 128:0.019571 129:0.0121733 130:0.00670253 131:0.00518004 132:0.0295742 133:0.257004 134:0.269771 135:0.269771 136:0.0842 137:0 138:0 139:0 140:0.000105876 141:0.000542924 142:0.00617743 143:0.00577517 144:0.0848366 145:0.20745 146:0.05145 147:0.0590688 148:0 149:0.00105983 150:0 151:0.000262921 152:0.00117121 153:0.177859 154:0.133756 155:0.137431 156:0.0947631 157:0.0186949 158:0.00262116 159:0.00747323 160:0.0166676 161:0.0213401 162:0.096666 163:0.0837714 164:0.0911809 165:0.0614793 166:0.0108679 167:0.00160074 168:0.00491904 169:0.0115771 170:0.0166974 171:0.0631318 172:0.155323 173:0.0365695 174:0.0428354 175:0 176:0.00061621 177:0 178:0.00021449 179:0.000930747 180:0.134781 181:0.0729685 182:0 183:0 184:0 185:0.000108993 186:0 187:0.0134615 188:0.00916956 189:0.0804598 190:0.158039 191:0.010493 192:0.00759412 193:0.00425455 194:0.00523752 195:0.0240202 196:0.216527 197:0.286778 198:0.27909 199:0.290342 200:0.000451577 201:0.000103818 202:0 203:0.00276985 204:0.00541422 205:0.117875 206:0.127017 207:0.290342 208:0.290342 209:0.0379008 210:0.0560015 211:0 212:0.00071903 213:0 214:0 215:0 216:0.290342 217:0.062554 218:0 219:0 220:0 221:0.00156541 222:0 223:0.0711602 224:0.0770143 225:0.100784 226:0.290342 227:0 228:0 229:0 230:0.00141087 231:0 232:0.0420904 233:0.0452258 234:0.290342 235:0.239105 236:0.0124588 237:0.0191318 238:0 239:0.000539273 240:0 241:0 242:0 243:0.236907 244:0.0639123 245:0.00655575 246:0.00962533 247:0 248:9.011e-005 249:0 250:0 251:0 252:0.0586475 253:0.132272 254:0.00110574 255:0.000248823 256:0 257:0.000605267 258:0 259:0.0443161 260:0.038809 261:0.153346 262:0.0738261 263:0.0210518 264:0.0152001 265:0.00657752 266:0.00201228 267:0.0145534 268:0.075012 269:0.11103 270:0.0981763 271:0.279335 272:0 273:0 274:0 275:0.000328599 276:0.00114144 277:0.0169814 278:0.0175295 279:0.279335 280:0.279335 281:0.150469 282:0.190091 283:0 284:0.00358906 285:0 286:0.000120436 287:0.000536495 288:0.279335 289:0.279335 290:0.279335 291:0.241028 292:0.0292856 293:0.00602348 294:0.00568899 295:0.00999756 296:0.0133161 297:0.225332 298:0.19998 299:0 300:0 301:0 302:0.000183328 303:0 304:0.00358343 305:0.00556391 306:0.199045 307:0.279335 308:0.0499513 309:0.0744499 310:0 311:0.00219404 312:0 313:0 314:0 315:0.279335 316:0.117564 317:0.0702744 318:0.0782061 319:0 320:0.00158376 321:0 322:0 323:0 324:0.0694962 
4.119067616120173 0 3.186210962051391 0 3.110786684123808 4.761882356468506 0 3.725626546919854 1.807631108419861 1:0.10048 2:0.0734407 3:0.0733283 4:0.0110603 5:0.00348861 6:0 7:0 8:0.000683092 9:0.0660217 10:0.282479 11:0.0568886 12:0.0449603 13:0.0107137 14:0.00891265 15:0 16:0 17:0 18:0.282479 19:0.206823 20:0 21:0 22:0 23:0.00273718 24:0.00274485 25:0.00899205 26:0.0117068 27:0.208877 28:0.214632 29:0.193978 30:0.282479 31:0.0208037 32:0.0043399 33:0.00581538 34:0.0229122 35:0.0121108 36:0.185935 37:0.282479 38:0.0520193 39:0.0519216 40:0.00524398 41:0.00798117 42:0 43:2.91899e-005 44:0.00102003 45:0.282479 46:0.282479 47:0.000187883 48:0 49:0 50:0.00239375 51:0.00135221 52:0.00409119 53:0.00579995 54:0.282479 55:0.0740259 56:0.0121503 57:0.031601 58:0.00655111 59:0.00248299 60:0.00926207 61:0.165019 62:0.073544 63:0.105926 64:0.221434 65:0.000420808 66:0.000278643 67:8.74325e-005 68:0.00460085 69:0.000818338 70:0.0695498 71:0.0367539 72:0.239499 73:0.128845 74:0.00813543 75:0.017661 76:0 77:0.00141017 78:0 79:0 80:0 81:0.126426 82:0.168974 83:0.00813328 84:0.00616118 85:0.00187524 86:0.00192634 87:0 88:0 89:0 90:0.167461 91:0.275102 92:0 93:0 94:0 95:0.00929658 96:0.011524 97:0.0494133 98:0.0616074 99:0.275102 100:0.0732704 101:0.000825094 102:0 103:0 104:0.00685641 105:0.0184976 106:0.0788913 107:0.08362 108:0.114108 109:0.275102 110:0.0040092 111:0.00279894 112:0.000928481 113:0.0016876 114:0 115:0 116:0.000127116 117:0.275102 118:0.275102 119:0.00113676 120:3.52899e-005 121:0 122:0.00834535 123:0.00562586 124:0.0602345 125:0.0584373 126:0.275102 127:0.207344 128:0.015061 129:0.0295196 130:0.00783912 131:0.0388281 132:0.0582001 133:0.275102 134:0.231428 135:0.24455 136:0.102618 137:0 138:0 139:0 140:0.00100049 141:0 142:0.0121357 143:0.00566951 144:0.104072 145:0.233173 146:0.0395064 147:0.0747462 148:0.000920106 149:0.00479847 150:0.000101938 151:0.000350476 152:0.000498491 153:0.213231 154:0.124083 155:0.089355 156:0.202483 157:0.0122019 158:0.00216654 159:0.00899536 160:0.0421306 161:0.0157092 162:0.0869152 163:0.0574217 164:0.0567139 165:0.109317 166:0.00846315 167:0.00142749 168:0.00567138 169:0.0288408 170:0.0119993 171:0.0592438 172:0.174081 173:0.00742691 174:0.0102238 175:8.81912e-005 176:0.00161983 177:0 178:2.70762e-005 179:0.00157332 180:0.180061 181:0.0957753 182:0.000304504 183:0 184:0 185:0.000470121 186:0 187:0 188:0 189:0.0943956 190:0.186593 191:0.00668668 192:0.0181784 193:0.00495597 194:0.00483119 195:0.0119525 196:0.289898 197:0.176625 198:0.251301 199:0.289898 200:0.00794818 201:0.0120083 202:0.00078296 203:0.0149798 204:0.00468812 205:0.209101 206:0.114538 207:0.289898 208:0.289898 209:0.0357311 210:0.072732 211:0.00179204 212:0.0100366 213:0.000993608 214:0.016916 215:0.00936783 216:0.289898 217:0.0767269 218:0 219:0 220:0 221:0.00211473 222:0.00111489 223:0.0811981 224:0.047152 225:0.0815656 226:0.289898 227:0.0179449 228:0.0233551 229:0.00179204 230:0.0106689 231:0.0065774 232:0.118269 233:0.0585456 234:0.289898 235:0.181397 236:0.0339954 237:0.0710872 238:0.0044801 239:0.0105045 240:0.00248402 241:0.03349 242:0.0210054 243:0.173481 244:0.0758897 245:0 246:0 247:0 248:0.000334888 249:0 250:0 251:0.000205896 252:0.0768226 253:0.175527 254:0.00174479 255:3.27151e-005 256:0 257:0.00169757 258:0.000102761 259:0.0122701 260:0.00866891 261:0.169094 262:0.0672451 263:0.0150448 264:0.0370787 265:0.00764047 266:0.0118354 267:0.0202986 268:0.138024 269:0.0693934 270:0.0662781 271:0.283631 272:0.00829816 273:0.0153662 274:0.000898103 275:0.00826158 276:0.00145272 277:0.053958 278:0.026769 279:0.283631 280:0.283631 281:0.119699 282:0.217409 283:0.00472199 284:0.0141422 285:0.000658159 286:0.009753 287:0.00667674 288:0.283631 289:0.283631 290:0.212928 291:0.283631 292:0.0153086 293:0.0050722 294:0.00680102 295:0.0244353 296:0.00847041 297:0.21301 298:0.138487 299:0.0184935 300:0.0304613 301:0.00224526 302:0.00897874 303:0.0036318 304:0.0569043 305:0.0276464 306:0.143935 307:0.283631 308:0.056365 309:0.111738 310:0.00602593 311:0.00916651 312:0.00145272 313:0.0188374 314:0.0149872 315:0.283631 316:0.0894627 317:0.0564768 318:0.0991815 319:0.00133357 320:0.00265789 321:0 322:0 323:0 324:0.0836023 
1.488809973103008 3.104046471462632 0 0 0 1.424739226387821 2.941464952362451 0 4.597793904681048 1:0.0182677 2:0.0703605 3:0.0436445 4:0.000225688 5:0.000221322 6:0 7:0 8:0 9:0.0116666 10:0.257791 11:0.288124 12:0.20117 13:0 14:0.000397299 15:0 16:0 17:0 18:0.106233 19:0.247015 20:0.178359 21:0.0515327 22:0 23:7.77498e-005 24:0 25:0 26:0 27:0.132693 28:0.108507 29:0.288124 30:0.288124 31:0.0195175 32:0.009814 33:0.00398271 34:0 35:0 36:0.0422354 37:0.288124 38:0.288124 39:0.288124 40:0 41:0.000881851 42:0 43:0 44:0 45:0.198262 46:0.21796 47:0.177631 48:0.040339 49:0 50:0.000108409 51:0 52:0 53:0 54:0.0961622 55:0.0352261 56:0.0740563 57:0.168146 58:0.0159383 59:0.0140362 60:0.00741609 61:0.0126303 62:0.0069985 63:0.0304844 64:0.133967 65:0.107906 66:0.052214 67:0 68:0.000296741 69:0 70:0 71:0 72:0.0749362 73:0.13011 74:0.13914 75:0.062506 76:0 77:0.000155552 78:0 79:0 80:0 81:0.0483233 82:0.151331 83:0.158771 84:0.0686057 85:0 86:7.97645e-005 87:0 88:0 89:0 90:0.0524513 91:0.237326 92:0.227688 93:0.125274 94:0 95:0.000293922 96:0 97:0.0113489 98:0.0124596 99:0.237326 100:0.15979 101:0.0288992 102:0.0666874 103:0.000663067 104:0.000268223 105:0.00490902 106:0.110403 107:0.0702333 108:0.205019 109:0.218967 110:0.235137 111:0.101917 112:0 113:0.000218722 114:0 115:0 116:0 117:0.0799165 118:0.237326 119:0.234415 120:0.117075 121:0.000364807 122:0.000536219 123:0 124:0.00312409 125:0.000948354 126:0.186771 127:0.108575 128:0.121364 129:0.237326 130:0.0335463 131:0.0306298 132:0.0170614 133:0.0565848 134:0.026205 135:0.109623 136:0.0772113 137:0.057159 138:0.0105321 139:0 140:4.14461e-005 141:0 142:0 143:0 144:0.0306563 145:0.219129 146:0.237326 147:0.219461 148:0.000912017 149:0.000456766 150:0 151:0 152:0 153:0.0952892 154:0.0680692 155:0.237326 156:0.237326 157:0.02317 158:0.00704799 159:0.0037855 160:0 161:0 162:0.0294663 163:0.0396167 164:0.171936 165:0.238034 166:0.0131893 167:0.00785099 168:0.00291749 169:0 170:0 171:0.0144676 172:0.112718 173:0.18681 174:0.11331 175:0 176:0.000385568 177:0 178:0 179:0 180:0.0435905 181:0.0400795 182:0.0386599 183:0.00784345 184:0 185:8.52862e-005 186:0 187:0 188:0 189:0.0150371 190:0.143289 191:0.0665129 192:0.187846 193:0.0159986 194:0.0177939 195:0.0137563 196:0.0687061 197:0.0332347 198:0.155592 199:0.256037 200:0.256037 201:0.148659 202:0 203:0.000490555 204:0 205:0.0010479 206:0.00104664 207:0.256037 208:0.256037 209:0.256037 210:0.178828 211:0 212:0.000269191 213:0 214:0 215:0 216:0.139468 217:0.196233 218:0.0242444 219:0.0488018 220:0 221:0.000236075 222:0.00202728 223:0.0802892 224:0.0394981 225:0.218692 226:0.256037 227:0.223453 228:0.106682 229:0 230:0.000311411 231:0 232:0.00628739 233:0.00627984 234:0.256037 235:0.15062 236:0.166096 237:0.0781028 238:0 239:0.000122129 240:0 241:0 242:0 243:0.070212 244:0.0486187 245:0.0530255 246:0.0204575 247:0 248:9.36557e-005 249:0 250:0 251:0 252:0.0171321 253:0.061219 254:0.0862919 255:0.0459397 256:0.000472762 257:0.000349416 258:0 259:0 260:0 261:0.0315379 262:0.031257 263:0.105823 264:0.232621 265:0.0227561 266:0.0148192 267:0.00656734 268:0.00212353 269:0.00211831 270:0.0208136 271:0.271299 272:0.214364 273:0.0499749 274:0 275:6.63052e-005 276:0 277:0 278:0 279:0.12548 280:0.30957 281:0.30957 282:0.30957 283:0.00118191 284:0.000843408 285:0 286:0 287:0 288:0.254228 289:0.121611 290:0.30957 291:0.30957 292:0.0234209 293:0.0061731 294:0.00295195 295:0 296:0 297:0.0542789 298:0.198241 299:0.135667 300:0.0391192 301:0 302:5.92791e-005 303:0 304:0 305:0 306:0.118194 307:0.191813 308:0.249554 309:0.159539 310:0 311:0.000449374 312:0 313:0 314:0 315:0.0929434 316:0.0116226 317:0.047124 318:0.0221307 319:0 320:0.000238844 321:0 322:0 323:0 324:0.00816218 
4.119067616120173 0 3.186210962051391 3.81238234102082 3.110786684123808 4.761882356468506 2.941464952362451 3.725626546919854 0 1:0.106507 2:0.0807157 3:0.0600565 4:0.00138076 5:0.000777541 6:0 7:0 8:0 9:0.0364387 10:0.261712 11:0.0756512 12:0.0354261 13:0 14:0.000309424 15:0 16:7.36649e-005 17:0.00146095 18:0.261712 19:0.18849 20:0.00251759 21:0.000126946 22:0 23:0.000111502 24:0 25:0.0102189 26:0.02608 27:0.186759 28:0.224745 29:0.257238 30:0.186412 31:0.0257369 32:0.0269326 33:0.00627625 34:0.0186662 35:0.0233098 36:0.155706 37:0.261712 38:0.2424 39:0.0940331 40:0 41:0.000441901 42:0 43:0.00476219 44:0.0123094 45:0.261712 46:0.261712 47:0.0151055 48:0.000761678 49:0 50:8.36265e-005 51:0 52:0.0193619 53:0.0951639 54:0.261712 55:0.0883236 56:0.0261971 57:0.0138392 58:0.0116441 59:0.0198155 60:0.0151824 61:0.086164 62:0.093696 63:0.126687 64:0.246798 65:0.00847443 66:0.000663986 67:0 68:0.000231595 69:0 70:0.0436077 71:0.116365 72:0.261712 73:0.148346 74:0.0512651 75:0.00924144 76:0 77:3.13183e-005 78:0 79:0.000430114 80:0.00853 81:0.136464 82:0.151867 83:0.0192316 84:0.00722876 85:0 86:8.10216e-005 87:0 88:0.000118912 89:0.00235831 90:0.153064 91:0.256908 92:0.00114147 93:5.75574e-005 94:0 95:0.000314156 96:0 97:0.0374674 98:0.0779725 99:0.256908 100:0.0373765 101:0 102:0 103:0 104:0.00014008 105:3.84439e-005 106:0.0861934 107:0.0894147 108:0.117871 109:0.256908 110:0.0729034 111:0.0144694 112:0 113:6.07662e-005 114:0 115:0.000713473 116:0.0141499 117:0.251658 118:0.256908 119:0.010979 120:0.00529075 121:0 122:0.000494908 123:0 124:0.100608 125:0.225692 126:0.256908 127:0.187778 128:0.0321624 129:0.0402556 130:0.00285064 131:0.0438022 132:0.00547396 133:0.256908 134:0.231756 135:0.256908 136:0.109815 137:0.00799032 138:0.000402902 139:0 140:2.2757e-005 141:0 142:0.00700498 143:0.0394544 144:0.118547 145:0.256908 146:0.11478 147:0.0464121 148:0 149:0.000263243 150:0 151:0.000710427 152:0.00498426 153:0.23993 154:0.120784 155:0.118399 156:0.139875 157:0.00994336 158:0.0349141 159:0.0022563 160:0.0252877 161:0.0204962 162:0.0958779 163:0.0765996 164:0.0901606 165:0.0615721 166:0.0152389 167:0.0195118 168:0.00626462 169:0.0252747 170:0.030816 171:0.0733708 172:0.199738 173:0.0686206 174:0.0271361 175:0 176:0.000129264 177:0 178:0.00712549 179:0.0079196 180:0.18391 181:0.0965957 182:0.00426863 183:0.00021524 184:0 185:0 186:0 187:0.00462463 188:0.0256544 189:0.101779 190:0.169442 191:0.01322 192:0.0080297 193:0.00879847 194:0.0181515 195:0.0232199 196:0.188688 197:0.210051 198:0.283352 199:0.283352 200:0.0123242 201:0.00073258 202:0 203:0.00056787 204:0 205:0.106511 206:0.279652 207:0.283352 208:0.283352 209:0.119659 210:0.0261875 211:0 212:0.000144616 213:0 214:0.000927069 215:0.0183856 216:0.283352 217:0.0307603 218:0 219:0 220:0 221:0.000121314 222:0 223:0.0528964 224:0.0755979 225:0.106155 226:0.283352 227:0 228:0 229:0 230:0.000288875 231:0 232:0.0329088 233:0.0511988 234:0.283352 235:0.18798 236:0.0122158 237:0.00835793 238:0 239:0.000108462 240:0 241:0 242:0 243:0.188203 244:0.0803765 245:0.0196699 246:0.00349231 247:0 248:0 249:0 250:0.000200861 251:0.00398356 252:0.0765738 253:0.183223 254:0.00822728 255:0.00806688 256:0 257:0.000158182 258:0 259:0.0291967 260:0.060736 261:0.198272 262:0.0800648 263:0.0402283 264:0.0495107 265:0.00279035 266:0.0333382 267:0.00331758 268:0.106013 269:0.0747335 270:0.0875851 271:0.272528 272:0.0171577 273:0.000865155 274:0 275:0.000104689 276:0 277:0.0193444 278:0.0910453 279:0.272528 280:0.272528 281:0.272528 282:0.112214 283:0 284:0.000605284 285:0 286:0.000659894 287:0.0088272 288:0.272528 289:0.272528 290:0.259897 291:0.272528 292:0.0171518 293:0.0317568 294:0.00140547 295:0.0137491 296:0.0107626 297:0.184733 298:0.152041 299:0 300:0 301:0 302:7.85169e-005 303:0 304:0.00573668 305:0.00843263 306:0.15189 307:0.272528 308:0.0548828 309:0.0352012 310:0 311:0.000289871 312:0 313:0 314:0 315:0.272528 316:0.117505 317:0.0898327 318:0.0635451 319:0 320:0.000146458 321:0 322:0 323:0 324:0.0326032 
0 3.104046471462632 0 0 0 0 2.941464952362451 0 4.597793904681048 1:0.0273471 2:0.0563769 3:0.056893 4:0 5:0.000100407 6:0 7:0 8:0 9:0.0118645 10:0.260147 11:0.289066 12:0.205289 13:0 14:9.23928e-005 15:0 16:0.00015233 17:5.09062e-005 18:0.0995084 19:0.259201 20:0.175387 21:0.0493396 22:0 23:0 24:0 25:2.53884e-005 26:8.48436e-006 27:0.121353 28:0.10846 29:0.289066 30:0.289066 31:0.0197183 32:0.0169011 33:0 34:0 35:0 36:0.0353497 37:0.289066 38:0.289066 39:0.289066 40:0 41:0.000769654 42:0 43:0.000203107 44:6.78749e-005 45:0.166981 46:0.199689 47:0.184424 48:0.0493527 49:0 50:0 51:0 52:3.38511e-005 53:1.13125e-005 54:0.102461 55:0.0417692 56:0.0608907 57:0.145299 58:0.0527896 59:0.0584281 60:0.0312017 61:0.0163239 62:0.010742 63:0.0390825 64:0.137933 65:0.125285 66:0.0447426 67:0 68:0.00075193 69:0 70:8.26858e-006 71:0.00156749 72:0.0861319 73:0.127732 74:0.149715 75:0.0686912 76:0 77:7.60484e-005 78:0 79:4.96115e-005 80:1.65793e-005 81:0.0446045 82:0.139557 83:0.152758 84:0.0775716 85:0 86:1.46524e-005 87:0 88:6.6718e-005 89:2.22961e-005 90:0.0549839 91:0.238315 92:0.231824 93:0.0519026 94:0 95:0.000222966 96:0 97:0.00184423 98:0.00587052 99:0.238315 100:0.174372 101:0.0242196 102:0.00461058 103:0 104:0.0118122 105:0.0329844 106:0.0553702 107:0.0719603 108:0.179892 109:0.204719 110:0.238315 111:0.115295 112:0 113:8.79142e-005 114:0 115:8.89574e-005 116:2.97281e-005 117:0.0744381 118:0.238315 119:0.237264 120:0.0963197 121:0 122:0.00131075 123:0 124:1.48262e-005 125:0.00434125 126:0.197817 127:0.117856 128:0.0974371 129:0.238315 130:0.121637 131:0.108002 132:0.0907815 133:0.0464455 134:0.0316616 135:0.108752 136:0.0678159 137:0.0644954 138:0.013218 139:0 140:0 141:0 142:1.28936e-005 143:4.30881e-006 144:0.0341534 145:0.235266 146:0.238315 147:0.238315 148:0 149:0.000470609 150:0 151:7.73615e-005 152:2.58529e-005 153:0.0743522 154:0.057292 155:0.220104 156:0.238315 157:0.0157575 158:0.0145121 159:0 160:0 161:0 162:0.0197358 163:0.0340378 164:0.139099 165:0.261998 166:0.023267 167:0.0179873 168:0 169:0 170:0 171:0.0109255 172:0.126266 173:0.183993 174:0.136031 175:0 176:0.000397928 177:0 178:3.28837e-005 179:1.09892e-005 180:0.0391509 181:0.0396067 182:0.0403646 183:0.0144093 184:0 185:0 186:0 187:5.48062e-006 188:1.83153e-006 189:0.0175704 190:0.148861 191:0.0521347 192:0.110056 193:0.0705414 194:0.0960959 195:0.07952 196:0.0580547 197:0.047703 198:0.153142 199:0.261998 200:0.261998 201:0.077495 202:0 203:0.00128029 204:0 205:0.000372849 206:0.00583753 207:0.261998 208:0.261998 209:0.261998 210:0.180366 211:0 212:0.000156069 213:0 214:0.000169201 215:5.6544e-005 216:0.124072 217:0.170873 218:0.0316165 219:0.0166605 220:0 221:0.00427833 222:0.0141936 223:0.0448885 224:0.0672335 225:0.192533 226:0.261998 227:0.261998 228:0.0670805 229:0 230:0.000102077 231:0 232:0.00207917 233:0.00508783 234:0.261998 235:0.151368 236:0.181028 237:0.0729603 238:0 239:0 240:0 241:6.76805e-005 242:2.26176e-005 243:0.0642753 244:0.0483606 245:0.0579246 246:0.0251554 247:0 248:2.52414e-005 249:0 250:1.53689e-005 251:5.13603e-006 252:0.0170367 253:0.071576 254:0.0867678 255:0.0716405 256:0 257:0.000489917 258:0 259:2.56148e-006 260:0.000750024 261:0.0322972 262:0.0271866 263:0.093618 264:0.230308 265:0.0547067 266:0.0437212 267:0.0221974 268:0.00846101 269:0.00516708 270:0.0162184 271:0.251315 272:0.240093 273:0.0498129 274:0 275:0 276:0 277:4.69245e-005 278:1.56813e-005 279:0.126161 280:0.312572 281:0.312572 282:0.312572 283:0 284:0.000801303 285:0 286:0.000281547 287:9.40879e-005 288:0.200128 289:0.118592 290:0.312572 291:0.312572 292:0.00915815 293:0.0112946 294:0 295:0 296:0 297:0.0429418 298:0.206768 299:0.148749 300:0.0380289 301:0 302:0 303:0 304:1.87698e-005 305:6.27253e-006 306:0.101445 307:0.212267 308:0.260732 309:0.140476 310:0 311:0 312:0 313:0.000112619 314:3.76352e-005 315:0.0823038 316:0.0225993 317:0.0360896 318:0.0342887 319:0 320:0 321:0 322:0 323:0 324:0.00980103 
4.119067616120173 0 3.186210962051391 3.81238234102082 3.110786684123808 4.761882356468506 2.941464952362451 3.725626546919854 4.597793904681048 1:0.0951275 2:0.0742989 3:0.0720041 4:0 5:0.000865043 6:0 7:0 8:0 9:0.0324403 10:0.268472 11:0.0685526 12:0.04784 13:0 14:0 15:0 16:0 17:0 18:0.263888 19:0.171438 20:0 21:0 22:0 23:0 24:0 25:0.00402558 26:0.0179223 27:0.183814 28:0.214913 29:0.186186 30:0.20944 31:0.0314472 32:0.0701564 33:0.0168848 34:0.0221792 35:0.00963729 36:0.116331 37:0.268472 38:0.217521 39:0.230639 40:0.00567012 41:0.00118006 42:0.00281413 43:0.00563227 44:0.003901 45:0.268472 46:0.268472 47:0.00078436 48:0 49:0 50:0.000284306 51:0 52:0.0803456 53:0.0549943 54:0.268472 55:0.0553983 56:0.0193424 57:0.0375885 58:0.0141445 59:0.0604038 60:0.022513 61:0.102653 62:0.0562057 63:0.0961382 64:0.237352 65:0.0126185 66:0.00803703 67:0.00287009 68:0.000856278 69:0.00375217 70:0.106712 71:0.0724885 72:0.268472 73:0.146929 74:0.0270299 75:0.0367519 76:0 77:0.000193638 78:0 79:0 80:0 81:0.140532 82:0.146089 83:0.0136623 84:0.00981999 85:0 86:0 87:0 88:0 89:0 90:0.142948 91:0.255432 92:0 93:0 94:0 95:0 96:0 97:0.0169695 98:0.0725576 99:0.265059 100:0.0456823 101:0 102:0 103:0 104:0.000277844 105:0 106:0.0947285 107:0.0847024 108:0.111286 109:0.265059 110:0.0474076 111:0.0635229 112:0 113:0.000236856 114:0 115:0 116:0 117:0.265059 118:0.265059 119:0.00843831 120:0.00661462 121:0.00345787 122:0.00191002 123:0.00774248 124:0.233786 125:0.179954 126:0.265059 127:0.129571 128:0.0135369 129:0.0305955 130:0.0181089 131:0.0871943 132:0.0373119 133:0.265059 134:0.153996 135:0.256137 136:0.115732 137:0.000932568 138:0 139:0 140:0.00016132 141:0 142:0.0278175 143:0.0169661 144:0.123241 145:0.265059 146:0.101757 147:0.10587 148:0.00607519 149:0.00176119 150:0.00413618 151:0.0111626 152:0.00666487 153:0.234621 154:0.0991818 155:0.087993 156:0.116968 157:0.0331382 158:0.0753755 159:0.0211599 160:0.0467814 161:0.013891 162:0.06831 163:0.0702556 164:0.0628649 165:0.0792813 166:0.0196567 167:0.0526205 168:0.0171323 169:0.0308301 170:0.0147782 171:0.0500363 172:0.216453 173:0.076657 174:0.0813034 175:0.00374535 176:0.000842599 177:0.00285539 178:0.0079089 179:0.00628845 180:0.191997 181:0.10992 182:0.00132261 183:0 184:0 185:0.000165056 186:0 187:0.028927 188:0.0175708 189:0.118435 190:0.116098 191:0.00950696 192:0.0242335 193:0.0104155 194:0.0654409 195:0.0228431 196:0.236478 197:0.145918 198:0.234288 199:0.281868 200:0.00603404 201:0.00511711 202:0.00204893 203:0.000852675 204:0.00380719 205:0.227145 206:0.180553 207:0.281868 208:0.281868 209:0.0655625 210:0.0864007 211:0 212:0.000274126 213:0 214:0 215:0 216:0.281868 217:0.0480374 218:0 219:0 220:0 221:0.000228666 222:0 223:0.0851196 224:0.0841706 225:0.116965 226:0.281868 227:0 228:0 229:0 230:0 231:0 232:0.0188373 233:0.0815833 234:0.281868 235:0.213991 236:0.0227505 237:0.0162768 238:0 239:0 240:0 241:0 242:0 243:0.208542 244:0.0923444 245:0.0156068 246:0.0213517 247:0 248:0.000134097 249:0 250:0 251:0 252:0.0890544 253:0.181432 254:0.0137377 255:0.0082714 256:0.00371932 257:0.00152218 258:0.00509675 259:0.0876229 260:0.0577706 261:0.224753 262:0.0511726 263:0.0214312 264:0.037987 265:0.0189504 266:0.0640272 267:0.0251367 268:0.10542 269:0.0454089 270:0.0859789 271:0.266244 272:0.000430725 273:0 274:0 275:0.000222709 276:0 277:0.0603351 278:0.0420911 279:0.266244 280:0.266244 281:0.232511 282:0.235266 283:0.00704326 284:0.00169653 285:0.00292883 286:0.00647842 287:0.00314763 288:0.266244 289:0.250532 290:0.217399 291:0.260622 292:0.0408053 293:0.0812864 294:0.0153954 295:0.0278823 296:0.00683184 297:0.132207 298:0.168742 299:0 300:0 301:0 302:0 303:0 304:0.00341659 305:0.0153148 306:0.179472 307:0.266244 308:0.0884793 309:0.054755 310:0 311:0 312:0 313:0 314:0 315:0.266244 316:0.128557 317:0.102012 318:0.098084 319:0 320:0.00123364 321:0 322:0 323:0 324:0.0439039 
0 0 3.186210962051391 0 3.110786684123808 0 0 0 0 1:0.137245 2:0.099775 3:0.0765124 4:0 5:0.000315687 6:0 7:0 8:0 9:0.0594963 10:0.253608 11:0.140249 12:0.0780895 13:0 14:5.73141e-006 15:0 16:0 17:0 18:0.253608 19:0.253608 20:0.00187409 21:0 22:0 23:3.43885e-005 24:0 25:0.0252078 26:0.0320559 27:0.253608 28:0.194336 29:0.253608 30:0.253608 31:0.0654655 32:0.06991 33:0.0193598 34:0.0198259 35:0.00370628 36:0.105108 37:0.253608 38:0.240368 39:0.133175 40:0 41:0.000539798 42:0 43:0.00052514 44:0.000414606 45:0.253608 46:0.253608 47:0.00468523 48:0 49:0 50:0.000206331 51:0 52:0.054883 53:0.0403179 54:0.253608 55:0.0508388 56:0.00462709 57:0.00803672 58:0.0301004 59:0.0462083 60:0.0362565 61:0.110362 62:0.119585 63:0.0936838 64:0.170836 65:0.000505881 66:7.23284e-005 67:0 68:0.000757618 69:0 70:0.0670135 71:0.0801528 72:0.212321 73:0.10791 74:0.0158579 75:0.0258381 76:0 77:0.000149977 78:0 79:0 80:0 81:0.0985231 82:0.225394 83:0.0339889 84:0.0220771 85:0 86:9.45245e-006 87:0 88:0 89:0 90:0.212689 91:0.25759 92:0.000868138 93:0 94:0 95:5.67147e-005 96:0 97:0.0734217 98:0.123647 99:0.25759 100:0.0609064 101:0 102:0 103:0 104:0.000472034 105:0 106:0.097672 107:0.132734 108:0.158096 109:0.226883 110:0.0560137 111:0.0348869 112:0 113:5.67147e-005 114:0 115:0 116:0 117:0.199312 118:0.25759 119:0.00268187 120:0.000647894 121:0 122:0.00342576 123:0 124:0.16463 125:0.16112 126:0.25759 127:0.122095 128:0.00379241 129:0.0243951 130:0.0213337 131:0.129139 132:0.0771753 133:0.25759 134:0.249454 135:0.248203 136:0.0810223 137:0 138:0 139:0 140:0.000125035 141:0 142:0.0195726 143:0.0147347 144:0.0858015 145:0.226649 146:0.0676213 147:0.0760202 148:0 149:0.00149179 150:0 151:0 152:0 153:0.16908 154:0.113762 155:0.119042 156:0.185572 157:0.0353786 158:0.0921491 159:0.0240423 160:0.00972649 161:0.00190282 162:0.0596275 163:0.0377327 164:0.0615577 165:0.0786287 166:0.0382636 167:0.0421319 168:0.0195021 169:0.0264366 170:0.00547017 171:0.0246929 172:0.0911445 173:0.0468476 174:0.0263819 175:0 176:0.000393259 177:0 178:0.000810352 179:0.000639785 180:0.0691176 181:0.0402839 182:0.000947879 183:0 184:0 185:5.38125e-005 186:0 187:0.0107899 188:0.00662225 189:0.042714 190:0.133452 191:0.00222809 192:0.00348331 193:0.0185856 194:0.0460488 195:0.0415314 196:0.216528 197:0.284898 198:0.270696 199:0.284898 200:0.000219261 201:3.13488e-005 202:0 203:0.000993061 204:0 205:0.178898 206:0.233832 207:0.284898 208:0.284898 209:0.0579279 210:0.0692524 211:0 212:0.000298346 213:0 214:0 215:0 216:0.284898 217:0.0554967 218:4.46462e-005 219:0 220:0 221:2.50001e-005 222:0 223:0.0507665 224:0.0760768 225:0.118964 226:0.284898 227:0 228:0 229:0 230:0 231:0 232:0.0419472 233:0.0882496 234:0.284898 235:0.251578 236:0.0297928 237:0.015033 238:0 239:0 240:0 241:0 242:0 243:0.237666 244:0.0358482 245:0.0102002 246:0.00616271 247:0 248:1.45256e-005 249:0 250:0 251:0 252:0.0304892 253:0.0697656 254:0.00120634 255:0.000981801 256:0 257:0.00169212 258:0 259:0.0330939 260:0.0272766 261:0.0922767 262:0.0300205 263:0.00574692 264:0.0320054 265:0.0206568 266:0.0819279 267:0.0385021 268:0.0994701 269:0.0511264 270:0.0503204 271:0.279594 272:0 273:0 274:0 275:0.000244258 276:0 277:0.0513941 278:0.0459623 279:0.279594 280:0.279594 281:0.22471 282:0.195238 283:0 284:0.0014501 285:0 286:0 287:0 288:0.279594 289:0.279594 290:0.279594 291:0.279594 292:0.0369703 293:0.083957 294:0.0134306 295:0.0041399 296:0.000809901 297:0.14552 298:0.195177 299:0 300:0 301:0 302:0 303:0 304:0.01102 305:0.0188837 306:0.206427 307:0.279594 308:0.113506 309:0.0441087 310:0 311:0 312:0 313:0 314:0 315:0.279594 316:0.120929 317:0.101828 318:0.0633733 319:0 320:0.000266303 321:0 322:0 323:0 324:0.0476118 
4.119067616120173 3.104046471462632 0 3.81238234102082 0 4.761882356468506 2.941464952362451 3.725626546919854 4.597793904681048 1:0.0179139 2:0.0498859 3:0.0338224 4:0 5:1.62933e-005 6:0 7:0 8:0 9:0.00860614 10:0.20819 11:0.255704 12:0.147707 13:0 14:0.000418204 15:0 16:0 17:0 18:0.109522 19:0.233767 20:0.156717 21:0.0454632 22:0 23:0.000114057 24:0 25:0 26:0 27:0.124049 28:0.160041 29:0.283315 30:0.283315 31:0.0494769 32:0.0326394 33:0.000131544 34:0 35:0 36:0.0385496 37:0.283315 38:0.283315 39:0.283315 40:0.00106147 41:0.00280004 42:2.19239e-005 43:0 44:0 45:0.203864 46:0.239237 47:0.18516 48:0.0894888 49:0 50:0.000177814 51:0 52:0 53:0 54:0.14106 55:0.0573664 56:0.0460694 57:0.148553 58:0.0635904 59:0.0687207 60:0.027411 61:0.0233236 62:0.00824969 63:0.0537165 64:0.18342 65:0.108921 66:0.0867062 67:0.00203101 68:0.00450193 69:0.00124907 70:0.00122012 71:0.00192464 72:0.116314 73:0.158448 74:0.132864 75:0.0893624 76:0 77:0.00013985 78:0 79:0 80:0 81:0.0562966 82:0.122207 83:0.116541 84:0.0582244 85:0 86:0.000198994 87:0 88:0 89:0 90:0.0597473 91:0.234462 92:0.214304 93:0.0557307 94:0 95:6.03255e-005 96:0.000446049 97:0.00488875 98:0.0303091 99:0.234462 100:0.118747 101:0.00856543 102:0.00413472 103:0.000243043 104:0.00836214 105:0.0206541 106:0.0625883 107:0.1267 108:0.147059 109:0.208621 110:0.234462 111:0.138671 112:0 113:0.000438974 114:0 115:0 116:0 117:0.0963301 118:0.234462 119:0.231607 120:0.153786 121:0.00874336 122:0.0110427 123:0.00267629 124:0.00926439 125:0.0404909 126:0.234462 127:0.10257 128:0.0693711 129:0.204368 130:0.136512 131:0.191884 132:0.067216 133:0.0787721 134:0.111176 135:0.110213 136:0.0804727 137:0.0574826 138:0.0321781 139:0 140:9.4252e-005 141:0 142:0 143:0 144:0.0478925 145:0.234462 146:0.234462 147:0.234462 148:0.00271425 149:0.00201065 150:0 151:0 152:0 153:0.0784103 154:0.0806354 155:0.181941 156:0.234462 157:0.047847 158:0.025489 159:0 160:0 161:0 162:0.0178174 163:0.0611978 164:0.109313 165:0.220201 166:0.0415813 167:0.027162 168:0.000206111 169:0 170:0 171:0.0146204 172:0.14665 173:0.200242 174:0.156507 175:0.00114466 176:0.00218724 177:3.43519e-005 178:0 179:0 180:0.0499322 181:0.0527379 182:0.040596 183:0.0300653 184:0 185:4.35005e-005 186:0 187:0 188:0 189:0.0268936 190:0.162252 191:0.0397569 192:0.122624 193:0.0701437 194:0.105645 195:0.0653172 196:0.0759446 197:0.0355226 198:0.196688 199:0.25984 200:0.25984 201:0.148738 202:0.00227459 203:0.00622484 204:0.00311606 205:0.00317709 206:0.00646059 207:0.25984 208:0.25984 209:0.25984 210:0.204115 211:0 212:0.000429274 213:0 214:0 215:0 216:0.154551 217:0.168484 218:0.0104848 219:0.000984791 220:0 221:0.00554048 222:0.00963545 223:0.0421808 224:0.0302467 225:0.194091 226:0.25984 227:0.234517 228:0.0601481 229:0 230:0.000220401 231:0.000484992 232:0.000529515 233:0.00258424 234:0.25984 235:0.132189 236:0.118453 237:0.0590563 238:0 239:0.000226724 240:0 241:0 242:0 243:0.0622979 244:0.0572911 245:0.0739899 246:0.0379723 247:0 248:0.000164803 249:0 250:0 251:0 252:0.0245977 253:0.110329 254:0.083288 255:0.112631 256:0.00519249 257:0.00544919 258:0.000819951 259:0.00237439 260:0.00806559 261:0.055726 262:0.0465128 263:0.0735222 264:0.197785 265:0.0818273 266:0.0865299 267:0.0182168 268:0.0159812 269:0.0194365 270:0.0268158 271:0.299449 272:0.225724 273:0.0973047 274:0 275:0.000230415 276:0 277:0 278:0 279:0.163298 280:0.308272 281:0.308272 282:0.308272 283:0.00187696 284:0.00212773 285:0 286:0 287:0 288:0.238352 289:0.148202 290:0.308272 291:0.308272 292:0.0408652 293:0.0231695 294:0 295:0 296:0 297:0.0361139 298:0.190942 299:0.129781 300:0.035504 301:0 302:0.000127799 303:0 304:0 305:0 306:0.0897512 307:0.171554 308:0.194889 309:0.117153 310:0 311:0.000356472 312:0 313:0 314:0 315:0.0947023 316:0.0125233 317:0.0340671 318:0.0151163 319:0 320:0 321:0 322:0 323:0 324:0.00741645 
4.119067616120173 0 3.186210962051391 3.81238234102082 3.110786684123808 4.761882356468506 0 3.725626546919854 4.597793904681048 1:0.0809826 2:0.0968923 3:0.0493223 4:0.000120673 5:0.000173483 6:0 7:0 8:0 9:0.0369072 10:0.265347 11:0.0888548 12:0.0482328 13:0 14:0.00023567 15:0 16:0.00646743 17:0.0225675 18:0.228369 19:0.125679 20:0.0158359 21:0.0109529 22:0 23:0.000146255 24:0 25:0.0161686 26:0.0524904 27:0.159356 28:0.175711 29:0.265347 30:0.210809 31:0.0256774 32:0.0228312 33:0.0208998 34:0.0149743 35:0.0125072 36:0.0784403 37:0.265347 38:0.265347 39:0.180835 40:0.0010698 41:0.00124894 42:0.00245608 43:0.0270245 44:0.0381308 45:0.265347 46:0.265347 47:0.040773 48:0.036361 49:0 50:0.00089658 51:0 52:0.0963915 53:0.127321 54:0.265347 55:0.0432126 56:0.0361284 57:0.0509151 58:0.0151958 59:0.0339471 60:0.0420287 61:0.0893304 62:0.0988287 63:0.063547 64:0.265347 65:0.0272846 66:0.0132204 67:0.000802348 68:0.00055738 69:0.00397477 70:0.0417789 71:0.0606053 72:0.265347 73:0.163544 74:0.00891833 75:0.0177209 76:0 77:0.000250898 78:0 79:0.00165788 80:0.00431348 81:0.159254 82:0.115567 83:0.03099 84:0.022194 85:0 86:0.000149815 87:0 88:0.00825716 89:0.0258733 90:0.113076 91:0.202973 92:0.00879307 93:0.00591566 94:0 95:0.000117774 96:0 97:0.0406514 98:0.101434 99:0.259865 100:0.0324832 101:0 102:0 103:0 104:9.0956e-005 105:0.00167003 106:0.0673944 107:0.107573 108:0.093243 109:0.259865 110:0.0964989 111:0.074378 112:0 113:0.000715462 114:0 115:0.0332104 116:0.0420421 117:0.246405 118:0.259865 119:0.0290788 120:0.0239143 121:0.0055499 122:0.00750328 123:0.00119487 124:0.256879 125:0.259865 126:0.259865 127:0.0792669 128:0.00976847 129:0.0179341 130:0.0184866 131:0.0738182 132:0.042511 133:0.259865 134:0.259865 135:0.16513 136:0.133303 137:0.00319184 138:0.000132558 139:0 140:0.000100517 141:0 142:0.00373245 143:0.00300331 144:0.140111 145:0.259865 146:0.0653783 147:0.0820268 148:0.0122343 149:0.00909767 150:0.000896151 151:0.0397074 152:0.0306564 153:0.253331 154:0.0782667 155:0.0815517 156:0.121346 157:0.0463698 158:0.0798567 159:0.00761075 160:0.0844217 161:0.0358043 162:0.0486389 163:0.0576992 164:0.0958417 165:0.0921627 166:0.0178249 167:0.0227396 168:0.0235491 169:0.020547 170:0.0198006 171:0.0255529 172:0.222935 173:0.117632 174:0.066441 175:0.000839546 176:0.000655747 177:0.00266025 178:0.0122471 179:0.0179966 180:0.157846 181:0.0922241 182:0.0131384 183:0.0117146 184:0 185:0.000412154 186:0 187:0.0339939 188:0.0413012 189:0.108338 190:0.109784 191:0.0205699 192:0.0343298 193:0.0119252 194:0.0401097 195:0.0566752 196:0.21471 197:0.241136 198:0.182533 199:0.298549 200:0.0137093 201:0.00856314 202:0.00062966 203:0.000592524 204:0.00445993 205:0.10643 206:0.137104 207:0.298549 208:0.298549 209:0.0266215 210:0.0458742 211:0 212:0.000382867 213:0 214:0.000782892 215:0.00203693 216:0.298549 217:0.0718177 218:0 219:0 220:0 221:0.000931638 222:0.0021274 223:0.0860555 224:0.0915817 225:0.102561 226:0.298549 227:0 228:0 229:0 230:3.8153e-005 231:0 232:0.055322 233:0.0477397 234:0.298549 235:0.217103 236:0.0211314 237:0.0186665 238:0 239:0.000207747 240:0 241:0 242:0 243:0.217826 244:0.087312 245:0.032125 246:0.0236679 247:0 248:0.00027995 249:0 250:0.010769 251:0.0114118 252:0.0732819 253:0.155009 254:0.0177434 255:0.0119375 256:0.00670841 257:0.00635074 258:0.000921732 259:0.107505 260:0.115602 261:0.200654 262:0.0343197 263:0.0161437 264:0.0236059 265:0.0215759 266:0.057511 267:0.0188423 268:0.141909 269:0.0928056 270:0.0488288 271:0.278994 272:0.0014816 273:6.15312e-005 274:0 275:4.66584e-005 276:0 277:0.0120004 278:0.00929811 279:0.278994 280:0.278994 281:0.169939 282:0.18965 283:0.0151618 284:0.0109362 285:0.000691299 286:0.0247168 287:0.0162876 288:0.278994 289:0.199353 290:0.236826 291:0.273701 292:0.068857 293:0.0996932 294:0.00518471 295:0.0569111 296:0.0214987 297:0.117047 298:0.182001 299:0 300:0 301:0 302:0 303:0 304:0.0101214 305:0.00724918 306:0.181971 307:0.278994 308:0.0968169 309:0.0587252 310:1.22598e-005 311:0.00043328 312:0 313:0 314:0 315:0.278994 316:0.116539 317:0.1311 318:0.07517 319:0.0047997 320:0.00271686 321:0 322:0 323:0 324:0.0593412 
0 0 0.3636029608749903 0 2.007171842350871 0 0 0 4.597793904681048 1:0.113697 2:0.0764373 3:0.0636849 4:0.000205562 5:0.000514833 6:0 7:0 8:0 9:0.0663028 10:0.258105 11:0.165298 12:0.0837965 13:0 14:0.000469389 15:0 16:0.00519025 17:0.00972338 18:0.258105 19:0.195532 20:0.0149167 21:0.00894415 22:0 23:0.000300554 24:0 25:0.040489 26:0.0819019 27:0.211984 28:0.204829 29:0.20806 30:0.258105 31:0.0135557 32:0.0503783 33:0.0237316 34:0.0299767 35:0.00380488 36:0.114527 37:0.258105 38:0.258105 39:0.144135 40:0.000217187 41:0.00149681 42:7.3561e-005 43:0.00508408 44:0.0149123 45:0.258105 46:0.235621 47:0.0220224 48:0.00596702 49:0 50:0.000305273 51:0 52:0.04628 53:0.123033 54:0.258105 55:0.0415969 56:0.00990467 57:0.0340233 58:0.00492752 59:0.0332556 60:0.0347857 61:0.16674 62:0.0940891 63:0.0946357 64:0.187866 65:0.000555645 66:0.00278375 67:0.000219101 68:0.00136329 69:0.000183902 70:0.0390309 71:0.0918572 72:0.233041 73:0.133258 74:0.0304199 75:0.005605 76:0 77:9.18052e-005 78:0 79:0 80:0 81:0.107051 82:0.171551 83:0.0581685 84:0.0261167 85:0 86:0.000211282 87:0 88:0.00820885 89:0.0134431 90:0.160066 91:0.250179 92:0.0075978 93:0.00397326 94:0 95:0.000534987 96:0 97:0.0975698 98:0.17982 99:0.250179 100:0.0513116 101:0 102:0 103:0 104:0.000189129 105:0.00144136 106:0.084658 107:0.0938578 108:0.0954882 109:0.242944 110:0.0820161 111:0.0210979 112:0 113:0.000201805 114:0 115:0.00547646 116:0.0199858 117:0.192241 118:0.250179 119:0.0118503 120:0.00980965 121:0.00350406 122:0.00888388 123:0.00696653 124:0.214746 125:0.250179 126:0.250179 127:0.126211 128:0.00346203 129:0.0467096 130:0.0242586 131:0.134556 132:0.0587506 133:0.250179 134:0.224741 135:0.224971 136:0.0909631 137:0 138:0 139:0 140:7.77246e-005 141:0 142:0.00326293 143:0.0160309 144:0.0975122 145:0.246446 146:0.0969808 147:0.0704782 148:0.0050904 149:0.00614953 150:0.00261824 151:0.0015971 152:0.00111979 153:0.162311 154:0.0954502 155:0.0889618 156:0.221163 157:0.0469274 158:0.100119 159:0.0189756 160:0.0232362 161:0.00279946 162:0.0532024 163:0.0455067 164:0.0558502 165:0.125819 166:0.00726797 167:0.0329663 168:0.022755 169:0.0366289 170:0.00598736 171:0.0287334 172:0.129774 173:0.0523188 174:0.0333456 175:0.000179993 176:0.000911022 177:8.97933e-005 178:0.00257698 179:0.00432436 180:0.0810889 181:0.0432484 182:0.00408196 183:0.000586839 184:0 185:2.92117e-005 186:0 187:0.00788237 188:0.0231401 189:0.060141 190:0.115739 191:0.00511841 192:0.0174559 193:0.00317671 194:0.0290706 195:0.0366086 196:0.288536 197:0.225141 198:0.26409 199:0.288536 200:0.00024887 201:0.00132373 202:0.00018822 203:0.00196792 204:0.000224483 205:0.127737 206:0.25602 207:0.288536 208:0.288536 209:0.104653 210:0.0284483 211:0 212:0.000388707 213:0 214:0 215:0 216:0.288536 217:0.0488861 218:0 219:0 220:0 221:0.000202801 222:0.00101674 223:0.0693596 224:0.0520004 225:0.109241 226:0.288536 227:0 228:0 229:0 230:0.000600835 231:0 232:0.0649217 233:0.0801837 234:0.288536 235:0.215979 236:0.0489001 237:0.0208306 238:0 239:0.000279097 240:0 241:0 242:0 243:0.210074 244:0.0483247 245:0.0152263 246:0.00282826 247:0 248:1.61041e-005 249:0 250:0.000547053 251:0.00377349 252:0.0353517 253:0.0771404 254:0.00385126 255:0.0103999 256:0.00344054 257:0.00599354 258:0.00392564 259:0.052633 260:0.0644205 261:0.121965 262:0.037138 263:0.00519983 264:0.0577266 265:0.0243386 266:0.0897717 267:0.0309659 268:0.134034 269:0.0539416 270:0.0642457 271:0.276763 272:0 273:0 274:0 275:0.00034309 276:0 277:0.0176263 278:0.0502632 279:0.276763 280:0.276763 281:0.276763 282:0.185221 283:0.00521837 284:0.00554069 285:0.00153828 286:0.000716982 287:0.000502702 288:0.276763 289:0.272872 290:0.241176 291:0.276763 292:0.0603683 293:0.102698 294:0.0109684 295:0.0122036 296:0.00125675 297:0.124654 298:0.183409 299:0 300:0 301:0 302:0.000257317 303:0 304:0.0133904 305:0.0186135 306:0.185476 307:0.276763 308:0.129997 309:0.0718332 310:0 311:0.000488563 312:0 313:0 314:0 315:0.276763 316:0.108641 317:0.0765717 318:0.0540686 319:0.000956764 320:0.00178875 321:0 322:0 323:0 324:0.0477381 
0 3.104046471462632 0 3.81238234102082 0 4.761882356468506 2.941464952362451 0 2.513889316652819 1:0.0223427 2:0.0428975 3:0.0349575 4:5.00723e-005 5:0.000114761 6:0 7:0 8:0 9:0.00953863 10:0.238578 11:0.255364 12:0.111031 13:0 14:0.000115765 15:0 16:0 17:0 18:0.0853568 19:0.19172 20:0.137892 21:0.0745368 22:0 23:0.000478942 24:0 25:0.000448527 26:0.00446471 27:0.147673 28:0.101252 29:0.295456 30:0.295456 31:0.0144257 32:0.00501688 33:0.000288316 34:0 35:0 36:0.0384605 37:0.295456 38:0.295456 39:0.295456 40:1.5007e-005 41:0.00183227 42:0 43:0 44:0 45:0.219797 46:0.256532 47:0.188868 48:0.0889907 49:5.00724e-005 50:0.000383138 51:0 52:0.00112132 53:0.00758883 54:0.17168 55:0.0314538 56:0.0797133 57:0.211822 58:0.0466125 59:0.0269367 60:0.0152152 61:0.03016 62:0.00137826 63:0.0293156 64:0.133044 65:0.118964 66:0.0886863 67:9.0042e-005 68:0.00265006 69:3.96952e-005 70:0.00104221 71:0.00022971 72:0.0628813 73:0.0982776 74:0.109345 75:0.0877491 76:0.000125181 77:4.2144e-005 78:0 79:0 80:0 81:0.0520374 82:0.128814 83:0.111414 84:0.0557996 85:0 86:8.22949e-005 87:0 88:0 89:0 90:0.0583314 91:0.23604 92:0.225552 93:0.100311 94:0 95:0.000938126 96:0.000995609 97:0.0158394 98:0.0346492 99:0.23604 100:0.106354 101:0.0303307 102:0.00765282 103:0.000307235 104:0.00821017 105:0.0124078 106:0.101453 107:0.0994462 108:0.14351 109:0.223827 110:0.23604 111:0.157793 112:0 113:0.000474563 114:0 115:0 116:0 117:0.106357 118:0.23604 119:0.23604 120:0.14549 121:0.00668256 122:0.00630219 123:0.00728904 124:0.0348653 125:0.052073 126:0.23604 127:0.0705189 128:0.0917126 129:0.233439 130:0.107905 131:0.0971195 132:0.103408 133:0.185874 134:0.0743752 135:0.128444 136:0.0676336 137:0.0452714 138:0.0218793 139:0 140:0.000158256 141:0 142:0 143:0 144:0.0275003 145:0.165148 146:0.23604 147:0.23604 148:0.00311401 149:0.0023621 150:0 151:0 152:0 153:0.0916382 154:0.0477237 155:0.167749 156:0.23604 157:0.0491161 158:0.0231538 159:0.00155261 160:0 161:0 162:0.0180781 163:0.0326545 164:0.129738 165:0.241682 166:0.0160732 167:0.00624629 168:0.000340468 169:0 170:0 171:0.0133863 172:0.117537 173:0.23804 174:0.18092 175:2.28453e-005 176:0.00128097 177:0 178:0 179:0 180:0.0593455 181:0.0518047 182:0.0393047 183:0.0220932 184:5.91295e-005 185:2.89539e-005 186:0 187:0.000223798 188:0.00133183 189:0.0315436 190:0.117245 191:0.0635496 192:0.198887 193:0.065473 194:0.0454297 195:0.0401043 196:0.0981224 197:0.0131331 198:0.123751 199:0.241682 200:0.241682 201:0.137969 202:0.000137072 203:0.0036545 204:0.000129459 205:0.00339898 206:0.000965766 207:0.237936 208:0.241682 209:0.241682 210:0.220844 211:0.000147824 212:3.86052e-005 213:0 214:0 215:0 216:0.140005 217:0.197426 218:0.00927183 219:0 220:0.000135756 221:0.00367174 222:0.00931347 223:0.0550478 224:0.0407753 225:0.205671 226:0.241682 227:0.241682 228:0.124638 229:0 230:0.000305165 231:5.17837e-005 232:0.00135959 233:0.000724324 234:0.241682 235:0.155232 236:0.162339 237:0.0901256 238:0 239:0 240:0 241:0 242:0 243:0.0689397 244:0.0552033 245:0.0809258 246:0.0461693 247:0 248:0.000249761 249:0 250:0 251:0 252:0.027575 253:0.0833392 254:0.0880012 255:0.0895614 256:0.00431034 257:0.00355174 258:0.00222973 259:0.00877024 260:0.0102428 261:0.0673342 262:0.0217328 263:0.0667004 264:0.203262 265:0.0677881 266:0.0469346 267:0.0348897 268:0.0462273 269:0.0108438 270:0.0300581 271:0.245202 272:0.170686 273:0.084301 274:0 275:0.000128656 276:0 277:0 278:0 279:0.108189 280:0.30302 281:0.30302 282:0.30302 283:0.00234855 284:0.00157084 285:0 286:0 287:0 288:0.249971 289:0.118323 290:0.30302 291:0.30302 292:0.0400625 293:0.0171439 294:0.00119201 295:0 296:0 297:0.0440748 298:0.190304 299:0.139669 300:0.0837712 301:0 302:6.4384e-005 303:0 304:0 305:0 306:0.122821 307:0.229771 308:0.299061 309:0.144125 310:0 311:3.54602e-005 312:0 313:0 314:0 315:0.082429 316:0.0282794 317:0.0483859 318:0.0341973 319:6.79745e-005 320:0.000129805 321:0 322:0 323:0 324:0.0128159 
0 1.646291429024003 3.186210962051391 0 3.110786684123808 4.761882356468506 0 3.725626546919854 4.597793904681048 1:0.0661561 2:0.110183 3:0.0370548 4:0.00179786 5:8.09948e-005 6:0 7:2.67849e-005 8:8.95105e-006 9:0.0419684 10:0.254409 11:0.102765 12:0.0875915 13:0 14:0.000518929 15:0 16:0.00535235 17:0.00210818 18:0.254409 19:0.172651 20:0.0146774 21:0.0212982 22:0 23:0.000361884 24:0 25:0.0582218 26:0.0327209 27:0.168938 28:0.121255 29:0.254409 30:0.23681 31:0.0379228 32:0.0966588 33:0.016144 34:0.0236539 35:0.0154035 36:0.0842486 37:0.254409 38:0.254409 39:0.217948 40:0.00276223 41:0.00640239 42:0.00238976 43:0.0164508 44:0.0132167 45:0.254409 46:0.254409 47:0.023822 48:0.0417461 49:0 50:0.00136306 51:0 52:0.116115 53:0.0782371 54:0.254409 55:0.0470681 56:0.0151638 57:0.0313719 58:0.0136395 59:0.0726812 60:0.0207902 61:0.140859 62:0.119381 63:0.0667614 64:0.208811 65:0.00694292 66:0.00810619 67:0.00202371 68:0.00434713 69:0.00318635 70:0.0849142 71:0.114676 72:0.254409 73:0.152632 74:0.0200954 75:0.0215402 76:0 77:0.000125443 78:0 79:0 80:0 81:0.133245 82:0.146532 83:0.0310706 84:0.0419299 85:0 86:0.000303653 87:0 88:0.00875668 89:0.00344951 90:0.140001 91:0.251358 92:0.00807503 93:0.0115921 94:0 95:0.000495346 96:0 97:0.114483 98:0.109449 99:0.251358 100:0.047798 101:0 102:0 103:0 104:0.000116761 105:0 106:0.048227 107:0.133303 108:0.0723331 109:0.251097 110:0.0686205 111:0.0848346 112:0 113:0.00114911 114:0 115:0.0166956 116:0.00629646 117:0.236592 118:0.251358 119:0.0187771 120:0.033079 121:0.00166482 122:0.00519787 123:0.00404132 124:0.243372 125:0.251358 126:0.251358 127:0.108241 128:0.0125112 129:0.0595343 130:0.0130885 131:0.101678 132:0.0323721 133:0.225275 134:0.251358 135:0.158549 136:0.106955 137:0 138:0 139:0 140:0.000147202 141:0 142:0.0164879 143:0.0189575 144:0.123032 145:0.251358 146:0.0921832 147:0.100455 148:0.00223801 149:0.00355154 150:0.00161653 151:0.00245543 152:0.0101275 153:0.21894 154:0.0802272 155:0.113639 156:0.19294 157:0.0251651 158:0.0777107 159:0.0124814 160:0.0241819 161:0.0249299 162:0.0716605 163:0.0368832 164:0.0966083 165:0.0911597 166:0.0201407 167:0.0699606 168:0.0152724 169:0.0303567 170:0.0232769 171:0.0308158 172:0.148549 173:0.0930138 174:0.0617142 175:0.0020871 176:0.0042994 177:0.00235394 178:0.0109514 179:0.0160804 180:0.131903 181:0.0661838 182:0.00532119 183:0.00984934 184:0 185:0.000442257 186:0 187:0.0277323 188:0.0206329 189:0.0669705 190:0.112783 191:0.00766498 192:0.0169844 193:0.0101012 194:0.0667862 195:0.0211582 196:0.284448 197:0.266677 198:0.162253 199:0.284448 200:0.00346939 201:0.0042425 202:0.0015369 203:0.00402083 204:0.00313858 205:0.210356 206:0.276171 207:0.284448 208:0.284448 209:0.0589678 210:0.0594751 211:0 212:0.000161123 213:0 214:0 215:0 216:0.284448 217:0.0457494 218:0 219:0 220:0 221:8.57849e-005 222:0 223:0.0606633 224:0.0693929 225:0.0629365 226:0.284448 227:0 228:0 229:0 230:0.00011438 231:0 232:0.0606559 233:0.0814028 234:0.284448 235:0.198563 236:0.0220823 237:0.0186934 238:0 239:2.77867e-005 240:0 241:0 242:0 243:0.181889 244:0.0603726 245:0.0176229 246:0.0203603 247:0 248:0.00038849 249:0 250:0.00409207 251:0.00240067 252:0.0567688 253:0.120745 254:0.0113493 255:0.0192711 256:0.00164726 257:0.00345574 258:0.00239965 259:0.0612525 260:0.108186 261:0.130994 262:0.0365495 263:0.018351 264:0.0705226 265:0.0128891 266:0.0690246 267:0.0185174 268:0.0786088 269:0.137786 270:0.0519578 271:0.27871 272:0 273:0 274:0 275:0.000186811 276:0 277:0.0448039 278:0.0502193 279:0.27871 280:0.27871 281:0.246414 282:0.235155 283:0.00221957 284:0.00342019 285:0.000959858 286:0.0013174 287:0.0048483 288:0.27871 289:0.207546 290:0.27871 291:0.27871 292:0.0371689 293:0.0844992 294:0.0085539 295:0.0140805 296:0.0119417 297:0.163712 298:0.150708 299:0 300:0 301:0 302:1.90814e-005 303:0 304:0.0137565 305:0.0161807 306:0.163726 307:0.27871 308:0.0881957 309:0.061811 310:0 311:0.000125881 312:0 313:0 314:0 315:0.273496 316:0.0792626 317:0.108481 318:0.0405851 319:0.00261049 320:0.000751603 321:0 322:0 323:0 324:0.053567 
4.119067616120173 3.104046471462632 2.598452903381198 3.81238234102082 0 4.761882356468506 2.941464952362451 3.725626546919854 4.597793904681048 1:0.0179139 2:0.0498859 3:0.0338224 4:0 5:1.62933e-005 6:0 7:0 8:0 9:0.00860614 10:0.20819 11:0.255704 12:0.147707 13:0 14:0.000418204 15:0 16:0 17:0 18:0.109522 19:0.233767 20:0.156717 21:0.0454632 22:0 23:0.000114057 24:0 25:0 26:0 27:0.124049 28:0.160041 29:0.283315 30:0.283315 31:0.0494769 32:0.0326394 33:0.000131544 34:0 35:0 36:0.0385496 37:0.283315 38:0.283315 39:0.283315 40:0.00106147 41:0.00280004 42:2.19239e-005 43:0 44:0 45:0.203864 46:0.239237 47:0.18516 48:0.0894888 49:0 50:0.000177814 51:0 52:0 53:0 54:0.14106 55:0.0573664 56:0.0460694 57:0.148553 58:0.0635904 59:0.0687207 60:0.027411 61:0.0233236 62:0.00824969 63:0.0537165 64:0.18342 65:0.108921 66:0.0867062 67:0.00203101 68:0.00450193 69:0.00124907 70:0.00122012 71:0.00192464 72:0.116314 73:0.158448 74:0.132864 75:0.0893624 76:0 77:0.00013985 78:0 79:0 80:0 81:0.0562966 82:0.122207 83:0.116541 84:0.0582244 85:0 86:0.000198994 87:0 88:0 89:0 90:0.0597473 91:0.234462 92:0.214304 93:0.0557307 94:0 95:6.03255e-005 96:0.000446049 97:0.00488875 98:0.0303091 99:0.234462 100:0.118747 101:0.00856543 102:0.00413472 103:0.000243043 104:0.00836214 105:0.0206541 106:0.0625883 107:0.1267 108:0.147059 109:0.208621 110:0.234462 111:0.138671 112:0 113:0.000438974 114:0 115:0 116:0 117:0.0963301 118:0.234462 119:0.231607 120:0.153786 121:0.00874336 122:0.0110427 123:0.00267629 124:0.00926439 125:0.0404909 126:0.234462 127:0.10257 128:0.0693711 129:0.204368 130:0.136512 131:0.191884 132:0.067216 133:0.0787721 134:0.111176 135:0.110213 136:0.0804727 137:0.0574826 138:0.0321781 139:0 140:9.4252e-005 141:0 142:0 143:0 144:0.0478925 145:0.234462 146:0.234462 147:0.234462 148:0.00271425 149:0.00201065 150:0 151:0 152:0 153:0.0784103 154:0.0806354 155:0.181941 156:0.234462 157:0.047847 158:0.025489 159:0 160:0 161:0 162:0.0178174 163:0.0611978 164:0.109313 165:0.220201 166:0.0415813 167:0.027162 168:0.000206111 169:0 170:0 171:0.0146204 172:0.14665 173:0.200242 174:0.156507 175:0.00114466 176:0.00218724 177:3.43519e-005 178:0 179:0 180:0.0499322 181:0.0527379 182:0.040596 183:0.0300653 184:0 185:4.35005e-005 186:0 187:0 188:0 189:0.0268936 190:0.162252 191:0.0397569 192:0.122624 193:0.0701437 194:0.105645 195:0.0653172 196:0.0759446 197:0.0355226 198:0.196688 199:0.25984 200:0.25984 201:0.148738 202:0.00227459 203:0.00622484 204:0.00311606 205:0.00317709 206:0.00646059 207:0.25984 208:0.25984 209:0.25984 210:0.204115 211:0 212:0.000429274 213:0 214:0 215:0 216:0.154551 217:0.168484 218:0.0104848 219:0.000984791 220:0 221:0.00554048 222:0.00963545 223:0.0421808 224:0.0302467 225:0.194091 226:0.25984 227:0.234517 228:0.0601481 229:0 230:0.000220401 231:0.000484992 232:0.000529515 233:0.00258424 234:0.25984 235:0.132189 236:0.118453 237:0.0590563 238:0 239:0.000226724 240:0 241:0 242:0 243:0.0622979 244:0.0572911 245:0.0739899 246:0.0379723 247:0 248:0.000164803 249:0 250:0 251:0 252:0.0245977 253:0.110329 254:0.083288 255:0.112631 256:0.00519249 257:0.00544919 258:0.000819951 259:0.00237439 260:0.00806559 261:0.055726 262:0.0465128 263:0.0735222 264:0.197785 265:0.0818273 266:0.0865299 267:0.0182168 268:0.0159812 269:0.0194365 270:0.0268158 271:0.299449 272:0.225724 273:0.0973047 274:0 275:0.000230415 276:0 277:0 278:0 279:0.163298 280:0.308272 281:0.308272 282:0.308272 283:0.00187696 284:0.00212773 285:0 286:0 287:0 288:0.238352 289:0.148202 290:0.308272 291:0.308272 292:0.0408652 293:0.0231695 294:0 295:0 296:0 297:0.0361139 298:0.190942 299:0.129781 300:0.035504 301:0 302:0.000127799 303:0 304:0 305:0 306:0.0897512 307:0.171554 308:0.194889 309:0.117153 310:0 311:0.000356472 312:0 313:0 314:0 315:0.0947023 316:0.0125233 317:0.0340671 318:0.0151163 319:0 320:0 321:0 322:0 323:0 324:0.00741645 
4.119067616120173 0 3.186210962051391 3.81238234102082 3.110786684123808 4.090777680366959 0 3.725626546919854 4.597793904681048 1:0.0809826 2:0.0968923 3:0.0493223 4:0.000120673 5:0.000173483 6:0 7:0 8:0 9:0.0369072 10:0.265347 11:0.0888548 12:0.0482328 13:0 14:0.00023567 15:0 16:0.00646743 17:0.0225675 18:0.228369 19:0.125679 20:0.0158359 21:0.0109529 22:0 23:0.000146255 24:0 25:0.0161686 26:0.0524904 27:0.159356 28:0.175711 29:0.265347 30:0.210809 31:0.0256774 32:0.0228312 33:0.0208998 34:0.0149743 35:0.0125072 36:0.0784403 37:0.265347 38:0.265347 39:0.180835 40:0.0010698 41:0.00124894 42:0.00245608 43:0.0270245 44:0.0381308 45:0.265347 46:0.265347 47:0.040773 48:0.036361 49:0 50:0.00089658 51:0 52:0.0963915 53:0.127321 54:0.265347 55:0.0432126 56:0.0361284 57:0.0509151 58:0.0151958 59:0.0339471 60:0.0420287 61:0.0893304 62:0.0988287 63:0.063547 64:0.265347 65:0.0272846 66:0.0132204 67:0.000802348 68:0.00055738 69:0.00397477 70:0.0417789 71:0.0606053 72:0.265347 73:0.163544 74:0.00891833 75:0.0177209 76:0 77:0.000250898 78:0 79:0.00165788 80:0.00431348 81:0.159254 82:0.115567 83:0.03099 84:0.022194 85:0 86:0.000149815 87:0 88:0.00825716 89:0.0258733 90:0.113076 91:0.202973 92:0.00879307 93:0.00591566 94:0 95:0.000117774 96:0 97:0.0406514 98:0.101434 99:0.259865 100:0.0324832 101:0 102:0 103:0 104:9.0956e-005 105:0.00167003 106:0.0673944 107:0.107573 108:0.093243 109:0.259865 110:0.0964989 111:0.074378 112:0 113:0.000715462 114:0 115:0.0332104 116:0.0420421 117:0.246405 118:0.259865 119:0.0290788 120:0.0239143 121:0.0055499 122:0.00750328 123:0.00119487 124:0.256879 125:0.259865 126:0.259865 127:0.0792669 128:0.00976847 129:0.0179341 130:0.0184866 131:0.0738182 132:0.042511 133:0.259865 134:0.259865 135:0.16513 136:0.133303 137:0.00319184 138:0.000132558 139:0 140:0.000100517 141:0 142:0.00373245 143:0.00300331 144:0.140111 145:0.259865 146:0.0653783 147:0.0820268 148:0.0122343 149:0.00909767 150:0.000896151 151:0.0397074 152:0.0306564 153:0.253331 154:0.0782667 155:0.0815517 156:0.121346 157:0.0463698 158:0.0798567 159:0.00761075 160:0.0844217 161:0.0358043 162:0.0486389 163:0.0576992 164:0.0958417 165:0.0921627 166:0.0178249 167:0.0227396 168:0.0235491 169:0.020547 170:0.0198006 171:0.0255529 172:0.222935 173:0.117632 174:0.066441 175:0.000839546 176:0.000655747 177:0.00266025 178:0.0122471 179:0.0179966 180:0.157846 181:0.0922241 182:0.0131384 183:0.0117146 184:0 185:0.000412154 186:0 187:0.0339939 188:0.0413012 189:0.108338 190:0.109784 191:0.0205699 192:0.0343298 193:0.0119252 194:0.0401097 195:0.0566752 196:0.21471 197:0.241136 198:0.182533 199:0.298549 200:0.0137093 201:0.00856314 202:0.00062966 203:0.000592524 204:0.00445993 205:0.10643 206:0.137104 207:0.298549 208:0.298549 209:0.0266215 210:0.0458742 211:0 212:0.000382867 213:0 214:0.000782892 215:0.00203693 216:0.298549 217:0.0718177 218:0 219:0 220:0 221:0.000931638 222:0.0021274 223:0.0860555 224:0.0915817 225:0.102561 226:0.298549 227:0 228:0 229:0 230:3.8153e-005 231:0 232:0.055322 233:0.0477397 234:0.298549 235:0.217103 236:0.0211314 237:0.0186665 238:0 239:0.000207747 240:0 241:0 242:0 243:0.217826 244:0.087312 245:0.032125 246:0.0236679 247:0 248:0.00027995 249:0 250:0.010769 251:0.0114118 252:0.0732819 253:0.155009 254:0.0177434 255:0.0119375 256:0.00670841 257:0.00635074 258:0.000921732 259:0.107505 260:0.115602 261:0.200654 262:0.0343197 263:0.0161437 264:0.0236059 265:0.0215759 266:0.057511 267:0.0188423 268:0.141909 269:0.0928056 270:0.0488288 271:0.278994 272:0.0014816 273:6.15312e-005 274:0 275:4.66584e-005 276:0 277:0.0120004 278:0.00929811 279:0.278994 280:0.278994 281:0.169939 282:0.18965 283:0.0151618 284:0.0109362 285:0.000691299 286:0.0247168 287:0.0162876 288:0.278994 289:0.199353 290:0.236826 291:0.273701 292:0.068857 293:0.0996932 294:0.00518471 295:0.0569111 296:0.0214987 297:0.117047 298:0.182001 299:0 300:0 301:0 302:0 303:0 304:0.0101214 305:0.00724918 306:0.181971 307:0.278994 308:0.0968169 309:0.0587252 310:1.22598e-005 311:0.00043328 312:0 313:0 314:0 315:0.278994 316:0.116539 317:0.1311 318:0.07517 319:0.0047997 320:0.00271686 321:0 322:0 323:0 324:0.0593412 
0 3.104046471462632 0 0 0.4944131564821321 0 2.941464952362451 0 0.2762734796083681 1:0.0292139 2:0.0535328 3:0.0676739 4:0.00132278 5:0.000182272 6:2.60707e-005 7:1.27455e-005 8:0 9:0.0133544 10:0.275586 11:0.258389 12:0.209962 13:0.000220463 14:0.000435368 15:0.000156424 16:7.6473e-005 17:0 18:0.117154 19:0.256224 20:0.165232 21:0.0604533 22:0 23:0.000199337 24:0 25:0 26:0 27:0.123907 28:0.180127 29:0.275586 30:0.275586 31:0.0660355 32:0.0820202 33:6.51767e-005 34:3.18638e-005 35:0 36:0.0735275 37:0.275586 38:0.275586 39:0.275586 40:0.00116797 41:0.00430503 42:0.00039106 43:0.000191182 44:0 45:0.234518 46:0.217569 47:0.177168 48:0.0531674 49:0 50:0.000112709 51:0 52:0 53:0 54:0.109884 55:0.0354584 56:0.0521648 57:0.117194 58:0.0623003 59:0.0988309 60:0.0215103 61:0.0197277 62:0.0182369 63:0.0259774 64:0.108063 65:0.0863721 66:0.0674686 67:0.000974948 68:0.0053456 69:0 70:0.00110634 71:0.00417775 72:0.0822353 73:0.107751 74:0.131204 75:0.0634419 76:7.34959e-005 77:0.000269206 78:0 79:0 80:0 81:0.04891 82:0.158121 83:0.129938 84:0.0812951 85:0 86:0.000238499 87:4.27585e-005 88:2.09039e-005 89:0 90:0.064935 91:0.236628 92:0.236628 93:0.0753681 94:0 95:0.00150438 96:0 97:0.00627039 98:0.00348988 99:0.236628 100:0.171507 101:0.0312441 102:0.00626925 103:0 104:0.0182248 105:0.0254068 106:0.0934673 107:0.0602636 108:0.176518 109:0.20372 110:0.236628 111:0.131517 112:0 113:0.000262853 114:0.000106896 115:5.22598e-005 116:0 117:0.102297 118:0.236628 119:0.230098 120:0.104719 121:0.00173714 122:0.0100001 123:0 124:0.00492876 125:0.00164711 126:0.20307 127:0.122731 128:0.0560178 129:0.197405 130:0.155005 131:0.164253 132:0.0598108 133:0.104279 134:0.0249069 135:0.10427 136:0.0568199 137:0.0504373 138:0.0226867 139:0 140:0.000111073 141:0 142:0 143:0 144:0.0358805 145:0.226101 146:0.236628 147:0.236628 148:0.00154538 149:0.00323094 150:0 151:0 152:0 153:0.0979427 154:0.0863246 155:0.165579 156:0.236628 157:0.0479436 158:0.0286727 159:0 160:0 161:0 162:0.0368869 163:0.0670234 164:0.121973 165:0.195997 166:0.0485213 167:0.0546062 168:1.38532e-005 169:6.77258e-006 170:0 171:0.0265196 172:0.114977 173:0.193029 174:0.139423 175:0.000755741 176:0.00356277 177:8.31191e-005 178:4.06355e-005 179:0 180:0.0616222 181:0.0442761 182:0.0342338 183:0.0137728 184:0 185:0 186:0 187:0 188:0 189:0.0214681 190:0.103336 191:0.0504285 192:0.111314 193:0.0686434 194:0.153492 195:0.0556909 196:0.0787828 197:0.0819181 198:0.104906 199:0.250708 200:0.250708 201:0.181505 202:0.00104328 203:0.00644258 204:0 205:0.00495346 206:0.017396 207:0.250708 208:0.250708 209:0.250708 210:0.190849 211:0.000153601 212:0.000671993 213:0 214:0 215:0 216:0.140575 217:0.191851 218:0.0213255 219:0.00653399 220:0 221:0.00736437 222:0.00969314 223:0.0641038 224:0.0842846 225:0.196018 226:0.250708 227:0.250708 228:0.118146 229:0 230:0.000230648 231:0 232:0.0037151 233:0.0114621 234:0.250708 235:0.202598 236:0.168016 237:0.0900872 238:0 239:0.000237252 240:0 241:0 242:0 243:0.0658121 244:0.0428933 245:0.0595674 246:0.0309517 247:0 248:8.50849e-005 249:2.29915e-005 250:1.12402e-005 251:0 252:0.0243466 253:0.0809728 254:0.0574902 255:0.0656959 256:0.00125186 257:0.00408567 258:0 259:0.000822328 260:0.000274808 261:0.0362739 262:0.0342805 263:0.0545527 264:0.17572 265:0.0818741 266:0.0666714 267:0.0137087 268:0.0208725 269:0.00442898 270:0.0184705 271:0.217028 272:0.176603 273:0.0858138 274:0 275:0.000180649 276:0 277:0 278:0 279:0.132537 280:0.300704 281:0.300704 282:0.300704 283:0.00171054 284:0.00459661 285:0 286:0 287:0 288:0.251164 289:0.17204 290:0.300704 291:0.300704 292:0.0343206 293:0.0233267 294:0 295:0 296:0 297:0.0755498 298:0.224464 299:0.135538 300:0.0585021 301:0 302:2.44358e-005 303:0 304:0 305:0 306:0.11293 307:0.262296 308:0.272306 309:0.174722 310:0 311:0.000781112 312:0 313:0 314:0 315:0.0861966 316:0.0309105 317:0.053396 318:0.0457008 319:0 320:0.000486026 321:0 322:0 323:0 324:0.0133629 
4.119067616120173 0 0.2241550977952027 0 3.110786684123808 0 0 0 0 1:0.102806 2:0.100351 3:0.0561798 4:0.0006507 5:0.000151465 6:0 7:0 8:0 9:0.0407387 10:0.280741 11:0.0719068 12:0.0178956 13:0 14:0.000179704 15:0 16:0 17:0.000204969 18:0.280741 19:0.18933 20:0.000353216 21:0 22:0 23:6.01625e-005 24:0 25:0.00402971 26:0.0179987 27:0.199278 28:0.144269 29:0.239728 30:0.229522 31:0.0309422 32:0.0709114 33:0.016178 34:0.0177473 35:0.0140765 36:0.113432 37:0.280741 38:0.222143 39:0.0918686 40:0.00294287 41:0.0029228 42:0.00197953 43:0.00417149 44:0.0100323 45:0.280741 46:0.280741 47:0.00775089 48:0 49:0 50:4.51219e-005 51:0 52:0.00858892 53:0.062599 54:0.280741 55:0.0472068 56:0.0218061 57:0.0266063 58:0.0184476 59:0.0653859 60:0.0247977 61:0.106565 62:0.0985195 63:0.0452543 64:0.19963 65:0.0107455 66:0.00647285 67:0.00220716 68:0.0027045 69:0.00263938 70:0.0434349 71:0.0931666 72:0.280741 73:0.169386 74:0.0247644 75:0.00325672 76:0 77:0 78:0 79:0 80:0.00342442 81:0.119989 82:0.162675 83:0.0128138 84:0.00278151 85:0 86:4.41295e-005 87:0 88:0 89:0.000333996 90:0.155304 91:0.270927 92:0.000161661 93:0 94:0 95:0.000186168 96:0 97:0.0196933 98:0.0773919 99:0.270927 100:0.0453327 101:0 102:0 103:0 104:0.000182328 105:0.000884401 106:0.0698583 107:0.11969 108:0.117404 109:0.270927 110:0.0471885 111:0.00587211 112:0 113:3.30972e-005 114:0 115:0 116:0.00732913 117:0.26974 118:0.270927 119:0.00999537 120:0.00499461 121:0.00241301 122:0.00350253 123:0.00358731 124:0.104401 125:0.234904 126:0.270927 127:0.126117 128:0.0166348 129:0.0214078 130:0.0199144 131:0.0892946 132:0.0386877 133:0.270927 134:0.270927 135:0.163441 136:0.0986381 137:0.00323808 138:0 139:0 140:0 141:0 142:0.00222162 143:0.0187888 144:0.135724 145:0.270927 146:0.0989686 147:0.0496992 148:0.00321735 149:0.00326306 150:0.00269048 151:0.00773851 152:0.0117566 153:0.193701 154:0.0508184 155:0.115459 156:0.127611 157:0.0307709 158:0.0821734 159:0.0227217 160:0.0320532 161:0.0257467 162:0.0523437 163:0.0350181 164:0.0772967 165:0.0839092 166:0.0209934 167:0.0566684 168:0.0164834 169:0.0248985 170:0.0205196 171:0.0367654 172:0.231961 173:0.0722161 174:0.0340843 175:0.00226483 176:0.00235551 177:0.00196392 178:0.00609266 179:0.0097871 180:0.153496 181:0.0914251 182:0.00261361 183:0 184:0 185:0 186:0 187:0.00250637 188:0.0188714 189:0.128798 190:0.115784 191:0.011448 192:0.0145108 193:0.0138361 194:0.0631638 195:0.0282468 196:0.230134 197:0.244848 198:0.152038 199:0.289109 200:0.0089923 201:0.00339159 202:0.00169862 203:0.00260998 204:0.00261856 205:0.0913847 206:0.22535 207:0.289109 208:0.289109 209:0.0639534 210:0.00883927 211:0 212:5.17578e-005 213:0 214:0 215:0.00776745 216:0.289109 217:0.0475882 218:0 219:0 220:0 221:0.000168422 222:0.00066942 223:0.0634085 224:0.115578 225:0.120224 226:0.289109 227:0.000210868 228:0 229:0 230:0.000204146 231:0 232:0.0211864 233:0.0843707 234:0.289109 235:0.234714 236:0.0209215 237:0.00479313 238:0 239:6.90103e-005 240:0 241:0 242:0.00036338 243:0.224495 244:0.10316 245:0.0143181 246:0.0017101 247:0 248:0 249:0 250:0 251:0.00247188 252:0.0750883 253:0.149167 254:0.0108178 255:0.00728362 256:0.00239445 257:0.00284263 258:0.00276133 259:0.0390417 260:0.0768531 261:0.224739 262:0.0407702 263:0.0242291 264:0.0299951 265:0.0203086 266:0.0712151 267:0.0260327 268:0.100419 269:0.0905327 270:0.0393205 271:0.278419 272:0.00734623 273:0 274:0 275:3.79721e-005 276:0 277:0.00604655 278:0.0481672 279:0.278419 280:0.278419 281:0.238216 282:0.103756 283:0.0031926 284:0.00312223 285:0.002071 286:0.00406263 287:0.00878308 288:0.278419 289:0.172433 290:0.278419 291:0.278258 292:0.035386 293:0.0795899 294:0.0170334 295:0.0175107 296:0.0135331 297:0.128817 298:0.184088 299:0.000343674 300:0 301:0 302:5.06294e-005 303:0 304:0.00330912 305:0.0148682 306:0.191662 307:0.278419 308:0.0909053 309:0.0233074 310:0 311:0.000211224 312:0 313:0 314:0.000166346 315:0.278419 316:0.137269 317:0.13758 318:0.0786771 319:0.000910024 320:0.000203024 321:0 322:0 323:0 324:0.0529022 
4.119067616120173 3.104046471462632 3.186210962051391 3.81238234102082 3.110786684123808 4.761882356468506 2.941464952362451 3.725626546919854 4.597793904681048 1:0.000143906 2:0.0171765 3:0.051628 4:0.000680911 5:0.000198993 6:0 7:0 8:0 9:5.59879e-005 10:0.0328036 11:0.164635 12:0.31711 13:0.00722034 14:0.0041559 15:0 16:0 17:0 18:0.0143638 19:0.0829994 20:0.130129 21:0.213316 22:0.00206106 23:0.00739379 24:0 25:0 26:0 27:0.029674 28:0.00256037 29:0.111638 30:0.31711 31:0.0801913 32:0.071251 33:0.000566679 34:0 35:0 36:0.00144189 37:0.0282965 38:0.31711 39:0.31711 40:0.183774 41:0.096279 42:8.94439e-005 43:0 44:0 45:0.00597747 46:0.0512746 47:0.155946 48:0.31711 49:0.0655895 50:0.0288966 51:0.000277279 52:0 53:0 54:0.0109191 55:0.00148392 56:0.0234061 57:0.200299 58:0.10769 59:0.101704 60:0.00120179 61:0 62:0 63:0.00148392 64:0.00656939 65:0.0795283 66:0.31711 67:0.147366 68:0.116371 69:0.000768132 70:0 71:0 72:0.00103471 73:0.00168567 74:0.0672827 75:0.284149 76:0.0416515 77:0.0220303 78:0.000110912 79:0 80:0 81:0.000555698 82:0.0284932 83:0.080885 84:0.225336 85:0.00302061 86:0.00265092 87:0 88:0 89:0 90:0.0130497 91:0.167631 92:0.229341 93:0.275972 94:0.0224736 95:0.0334088 96:0.00269326 97:0.00866193 98:0.00192651 99:0.0705438 100:0.0513737 101:0.0429627 102:0.0806571 103:0.0435862 104:0.119839 105:0.0124684 106:0.02654 107:0.0102989 108:0.0477299 109:0.0221607 110:0.145881 111:0.276701 112:0.0671254 113:0.0282473 114:0 115:0 116:0 117:0.00480024 118:0.0860994 119:0.238816 120:0.276701 121:0.198763 122:0.115048 123:0.00244941 124:0.00346477 125:0.000321086 126:0.0223167 127:0.0138277 128:0.0662142 129:0.276701 130:0.276701 131:0.245969 132:0.00470573 133:0.00866192 134:0.000802714 135:0.00976266 136:0.00278471 137:0.0400717 138:0.159763 139:0.0356594 140:0.0255973 141:0.000127467 142:0 143:0 144:0.000279509 145:0.00179375 146:0.1277 147:0.276701 148:0.116085 149:0.0609586 150:0.000410232 151:0 152:0 153:0.00110008 154:0.000325452 155:0.0539109 156:0.276701 157:0.082706 158:0.0557681 159:0.000209228 160:0 161:0 162:0.00031817 163:0.00137876 164:0.0426946 165:0.172108 166:0.0510307 167:0.0508889 168:0.00054947 169:0 170:0 171:0.00102907 172:0.00920252 173:0.115289 174:0.278854 175:0.10135 176:0.0644297 177:8.37902e-005 178:0 179:0 180:0.00133752 181:0.00712463 182:0.0395051 183:0.150501 184:0.0382248 185:0.018048 186:0.000156302 187:0 188:0 189:0.00117681 190:0.00682754 191:0.0343569 192:0.278854 193:0.171364 194:0.210642 195:0.00243633 196:0.00409448 197:0.000801015 198:0.00491317 199:0.0326277 200:0.210226 201:0.278854 202:0.208071 203:0.206666 204:0.00215735 205:0.00307086 206:0.000600761 207:0.00861538 208:0.00874055 209:0.203609 210:0.278854 211:0.0485094 212:0.0233059 213:6.2521e-005 214:0 215:0 216:0.00401775 217:0.0521577 218:0.0450656 219:0.0662126 220:0.0139618 221:0.145102 222:0.00110774 223:0.0260483 224:0.0053266 225:0.0410769 226:0.180205 227:0.278854 228:0.278854 229:0.0125564 230:0.0935889 231:0.000836882 232:0.0184252 233:0.00360457 234:0.0695682 235:0.0411494 236:0.174113 237:0.278854 238:0.00537772 239:0.00054273 240:0 241:0 242:0 243:0.0139031 244:0.00613826 245:0.0475301 246:0.16317 247:0.0364591 248:0.0193017 249:0 250:0 251:0 252:0.000847621 253:0.0086416 254:0.0729274 255:0.323359 256:0.109898 257:0.0602819 258:0.000782598 259:0 260:0 261:0.0014812 262:0.00021088 263:0.0348693 264:0.223267 265:0.128094 266:0.0877095 267:0.000739061 268:0 269:0 270:0.000155669 271:0.013215 272:0.125214 273:0.323359 274:0.049908 275:0.0374466 276:0.000395436 277:0 278:0 279:0.00329973 280:0.0149384 281:0.323359 282:0.323359 283:0.157566 284:0.0788321 285:0.000233228 286:0 287:0 288:0.00841517 289:0.00121303 290:0.0913029 291:0.323359 292:0.102905 293:0.0731031 294:0.000105381 295:0 296:0 297:0.00126311 298:0.0737064 299:0.177724 300:0.228974 301:0.00459507 302:0.00781571 303:0.000123502 304:0 305:0 306:0.0212958 307:0.0434508 308:0.265224 309:0.323359 310:0.0121159 311:0.00490628 312:0 313:0 314:0 315:0.0208149 316:0.00161787 317:0.0177055 318:0.0627493 319:0.00606783 320:0.00532135 321:0 322:0 323:0 324:0.00179054 
4.119067616120173 3.104046471462632 3.186210962051391 3.81238234102082 3.110786684123808 4.761882356468506 2.941464952362451 3.725626546919854 4.597793904681048 1:0.000179697 2:0.0472067 3:0.12497 4:9.8252e-005 5:0.000258339 6:0 7:0 8:0 9:0.000179697 10:0.0827463 11:0.238761 12:0.290259 13:0.000586575 14:0.000745367 15:0 16:0 17:0 18:0.0272509 19:0.090095 20:0.121062 21:0.0761136 22:0.000410455 23:0.000337826 24:0 25:0 26:0 27:0.0450323 28:0.000472674 29:0.146638 30:0.290259 31:0.0845678 32:0.0509423 33:0.000542981 34:0 35:0 36:0.000472674 37:0.172562 38:0.290259 39:0.290259 40:0.113566 41:0.0381274 42:0 43:0 44:0 45:0.0442795 46:0.210144 47:0.241368 48:0.290259 49:0.00513478 50:0.00342902 51:0 52:0 53:0 54:0.0850976 55:0.00401211 56:0.0297651 57:0.150807 58:0.0873378 59:0.0846544 60:0.000757739 61:0 62:0 63:0.00401211 64:0.0294915 65:0.158979 66:0.290259 67:0.142353 68:0.101829 69:0.00105725 70:0 71:0 72:0.0123829 73:0.0104723 74:0.129801 75:0.281324 76:0.00108762 77:0.00251184 78:0 79:0 80:0 81:0.00507938 82:0.0572973 83:0.110164 84:0.119377 85:0.000419786 86:0.000260556 87:0 88:0 89:0 90:0.0168644 91:0.163418 92:0.186492 93:0.133789 94:0.00361619 95:0.00410579 96:3.1499e-005 97:0.00896315 98:0.0236827 99:0.12228 100:0.0635898 101:0.0273314 102:0.0298404 103:0.00825338 104:0.0340663 105:0.000320496 106:0.0594112 107:0.0569081 108:0.0971206 109:0.137624 110:0.151631 111:0.284104 112:0.0375818 113:0.0130794 114:0 115:0 116:0 117:0.0348869 118:0.284104 119:0.284104 120:0.284104 121:0.0529659 122:0.0369999 123:0.000589953 124:0.0100307 125:0.0307006 126:0.178635 127:0.0658907 128:0.113003 129:0.284104 130:0.142006 131:0.1923 132:0.00170802 133:0.0222871 134:0.0522671 135:0.0950693 136:0.0162078 137:0.0811871 138:0.180338 139:0.0385161 140:0.0204058 141:0.00016348 142:0 143:0 144:0.00703717 145:0.00790663 146:0.24661 147:0.284104 148:0.00455371 149:0.00237076 150:0 151:0 152:0 153:0.00419044 154:0.00393012 155:0.0971713 156:0.284104 157:0.0543438 158:0.0319537 159:0.000503576 160:0 161:0 162:0.00366956 163:0.000300795 164:0.0493108 165:0.174922 166:0.057214 167:0.0266089 168:0.000191646 169:0 170:0 171:0.000300795 172:0.0614389 173:0.129649 174:0.268375 175:0.0916869 176:0.0296991 177:0 178:0 179:0 180:0.0175138 181:0.0641172 182:0.0880928 183:0.173188 184:0.00222163 185:0.00233103 186:0 187:0 188:0 189:0.0241971 190:0.0270077 191:0.0424001 192:0.200255 193:0.14151 194:0.218373 195:0.0064103 196:0.00986386 197:0.00963345 198:0.022612 199:0.159177 200:0.268375 201:0.268375 202:0.196921 203:0.231499 204:0.00607074 205:0.0131518 206:0.0109374 207:0.0626506 208:0.0259474 209:0.268375 210:0.268375 211:0.000743548 212:0.0027206 213:0 214:0 215:0 216:0.0186575 217:0.072145 218:0.00893658 219:0.00316176 220:0.0307196 221:0.0723653 222:0.0138461 223:0.0324782 224:0.0361183 225:0.0844222 226:0.268375 227:0.268375 228:0.145298 229:0.0286791 230:0.067144 231:0.00496857 232:0.0211358 233:0.0218413 234:0.153673 235:0.103048 236:0.177836 237:0.180126 238:0 239:0.000965022 240:0 241:0 242:0 243:0.0506752 244:0.0461307 245:0.0586345 246:0.166817 247:0.0284384 248:0.00989464 249:0 250:0 251:0 252:0.0127867 253:0.075934 254:0.173142 255:0.310303 256:0.0189391 257:0.0122076 258:0.000190094 259:0.00159335 260:0.00487674 261:0.0394231 262:0.0134371 263:0.0541116 264:0.209338 265:0.0624648 266:0.0646758 267:0.00070137 268:0.00354027 269:0.00828403 270:0.0179569 271:0.0616198 272:0.215781 273:0.288153 274:0.0412458 275:0.033119 276:0.000418279 277:0.00211927 278:0.00136733 279:0.0268442 280:0.0199709 281:0.310303 282:0.310303 283:0.00263002 284:0.0029665 285:0 286:0 287:0 288:0.0158172 289:0.00363343 290:0.197251 291:0.310303 292:0.0669422 293:0.0378478 294:0.000557896 295:0 296:0 297:0.00246677 298:0.119806 299:0.156315 300:0.0852154 301:0.00206416 302:0.00659378 303:8.9499e-005 304:0.00282569 305:0.00189821 306:0.0579983 307:0.132851 308:0.282098 309:0.310303 310:0.00028803 311:0.00142873 312:0 313:0 314:0 315:0.057916 316:0.00637421 317:0.0923263 318:0.216088 319:0.00172818 320:0.000248714 321:0 322:0 323:0 324:0.00061554 
3.3139944045303 3.104046471462632 3.186210962051391 3.81238234102082 3.110786684123808 4.761882356468506 2.941464952362451 3.725626546919854 4.597793904681048 1:0.000230166 2:0.0353237 3:0.081396 4:0.000208386 5:0.0001715 6:0 7:0 8:0 9:8.56445e-005 10:0.102966 11:0.246467 12:0.300824 13:8.33542e-005 14:0.000808152 15:0 16:0 17:0 18:0.0403928 19:0.150344 20:0.15973 21:0.0989599 22:0 23:0.000387119 24:0 25:0 26:0 27:0.066035 28:0.00341224 29:0.18844 30:0.300824 31:0.0309272 32:0.0829552 33:0.00100537 34:0 35:0 36:0.00195311 37:0.0959439 38:0.300824 39:0.300824 40:0.0855371 41:0.0805575 42:0.00015218 43:0 44:0 45:0.0456457 46:0.170974 47:0.242254 48:0.275769 49:0.00225768 50:0.00249121 51:0 52:0 53:0 54:0.0574961 55:0.00407502 56:0.0475447 57:0.18619 58:0.0508788 59:0.131358 60:0.00403758 61:0 62:0 63:0.0038499 64:0.0140227 65:0.137304 66:0.300824 67:0.0753121 68:0.145911 69:0.00500517 70:0 71:0 72:0.0109313 73:0.0061972 74:0.104395 75:0.227422 76:0.00124276 77:0.00219931 78:0 79:0 80:0 81:0.00369321 82:0.0733645 83:0.121518 84:0.131183 85:0 86:0.000349552 87:0 88:0 89:0 90:0.0260079 91:0.258431 92:0.250269 93:0.126713 94:0 95:0.00173422 96:0.00195865 97:0.00393712 98:0.020234 99:0.179281 100:0.0976262 101:0.0401035 102:0.0100645 103:0.000222334 104:0.0399828 105:0.01207 106:0.0682484 107:0.0730956 108:0.145035 109:0.0778033 110:0.248891 111:0.258431 112:0.0289023 113:0.0219327 114:3.19751e-005 115:0 116:0 117:0.0317534 118:0.258431 119:0.258431 120:0.258431 121:0.0409129 122:0.0283808 123:0.00571321 124:0.00236754 125:0.0208575 126:0.11956 127:0.0555322 128:0.125621 129:0.258431 130:0.124137 131:0.202136 132:0.0322666 133:0.0160093 134:0.0561255 135:0.0826483 136:0.00686144 137:0.0573695 138:0.119375 139:0.0219208 140:0.0255094 141:0.000858818 142:0 143:0 144:0.00554719 145:0.00741561 146:0.233553 147:0.258431 148:0.0086512 149:0.00603209 150:0.000136095 151:0 152:0 153:0.00272794 154:0.00223918 155:0.133807 156:0.258431 157:0.0560765 158:0.0359197 159:0.000561973 160:0 161:0 162:0.00194761 163:0.00180895 164:0.0729967 165:0.184271 166:0.0245021 167:0.0513431 168:0.000556388 169:0 170:0 171:0.00123192 172:0.0240922 173:0.203129 174:0.249709 175:0.0591111 176:0.0577095 177:0.000231454 178:0 179:0 180:0.0122375 181:0.0358388 182:0.075356 183:0.10312 184:0.000926175 185:0.00157294 186:0 187:0 188:0 189:0.0118108 190:0.018518 191:0.0450459 192:0.249709 193:0.0764296 194:0.248145 195:0.0191546 196:0.0336289 197:0.00283367 198:0.0134404 199:0.0865453 200:0.249709 201:0.249709 202:0.0843639 203:0.248637 204:0.0205105 205:0.0302369 206:0.00380128 207:0.05084 208:0.0352794 209:0.249709 210:0.249709 211:0.00363781 212:0.0034317 213:0 214:1.14937e-005 215:3.84101e-006 216:0.0177424 217:0.102751 218:0.0063215 219:0.0401524 220:0.0134091 221:0.0538016 222:0.0209895 223:0.0923354 224:0.0338016 225:0.109368 226:0.249709 227:0.249709 228:0.204635 229:0.0155786 230:0.0374815 231:0.0143806 232:0.0676334 233:0.015534 234:0.230214 235:0.128501 236:0.215299 237:0.177725 238:0.00227757 239:0.001515 240:0 241:6.89624e-005 242:2.30461e-005 243:0.0529703 244:0.0203877 245:0.0917412 246:0.138778 247:0.0208132 248:0.0160557 249:5.19873e-005 250:0 251:0 252:0.00870395 253:0.0561421 254:0.138381 255:0.255514 256:0.0186819 257:0.012709 258:0.00141668 259:0.000391479 260:0.00245079 261:0.0193253 262:0.0101344 263:0.064874 264:0.215129 265:0.0687348 266:0.0748648 267:0.00743883 268:0.00234888 269:0.00714809 270:0.0113815 271:0.0433696 272:0.177669 273:0.216026 274:0.0221537 275:0.0377102 276:0.00296078 277:0.00200307 278:0.00066939 279:0.0251674 280:0.0421112 281:0.322522 282:0.322522 283:0.00954169 284:0.00624225 285:6.21502e-005 286:5.53075e-006 287:1.84829e-006 288:0.0192764 289:0.00257317 290:0.262168 291:0.322522 292:0.0566999 293:0.0327411 294:0.000567571 295:0 296:0 297:0.00151 298:0.147577 299:0.200084 300:0.105041 301:0.00303392 302:0.00445806 303:0.00142934 304:0.00529291 305:0.0017688 306:0.0893068 307:0.161711 308:0.322522 309:0.322522 310:0.0030268 311:0.00240444 312:0 313:3.31845e-005 314:1.10897e-005 315:0.0623449 316:0.00463476 317:0.0787425 318:0.151773 319:0 320:0.000220427 321:0 322:0 323:0 324:0.00110937 
4.119067616120173 3.104046471462632 0 3.81238234102082 0 4.761882356468506 2.941464952362451 1.113563853940901 0 1:0.0128949 2:0.0468589 3:0.0224908 4:0.00286781 5:0.00246364 6:0 7:0 8:0 9:0.0134856 10:0.244036 11:0.271787 12:0.16257 13:0.000477969 14:0.000561721 15:0 16:0 17:0.000910524 18:0.087506 19:0.245382 20:0.127201 21:0.0687276 22:0 23:0.00218632 24:3.70233e-005 25:0 26:0 27:0.166983 28:0.12477 29:0.29889 30:0.29889 31:0.0657116 32:0.0232454 33:6.68373e-005 34:0 35:0 36:0.0684808 37:0.29889 38:0.29889 39:0.29889 40:0.0231847 41:0.00502041 42:0 43:0 44:0.00227631 45:0.132 46:0.222166 47:0.131944 48:0.0987401 49:0 50:0.0142438 51:0.00022214 52:0 53:0 54:0.138624 55:0.0523303 56:0.0881033 57:0.25087 58:0.0460218 59:0.0238515 60:0.00316662 61:0.0132941 62:0.0232518 63:0.0615894 64:0.0960613 65:0.0876745 66:0.0993388 67:0.01852 68:0.00332302 69:0 70:0.00783458 71:0.0238348 72:0.079016 73:0.0728297 74:0.0740435 75:0.0697649 76:0.00812626 77:0.00345143 78:0 79:0 80:0 81:0.0365021 82:0.165201 83:0.138088 84:0.0869274 85:0 86:9.71803e-005 87:0 88:0 89:0.000360181 90:0.0695912 91:0.245715 92:0.215885 93:0.0874147 94:7.20664e-005 95:0.0127597 96:0.000144005 97:0 98:0.0133763 99:0.245715 100:0.192292 101:0.0350142 102:0 103:9.60885e-005 104:0.0242203 105:0.0140331 106:0.083901 107:0.0719006 108:0.245715 109:0.221973 110:0.245715 111:0.245715 112:0 113:0.000543417 114:0 115:0 116:0.000900452 117:0.0734689 118:0.245715 119:0.202964 120:0.101591 121:0.0022045 122:0.0837284 123:0.00086403 124:0 125:0.0100322 126:0.245715 127:0.160628 128:0.0942292 129:0.0792261 130:0.0802226 131:0.1443 132:0.0881268 133:0.104275 134:0.0574573 135:0.200447 136:0.0468175 137:0.042843 138:0.0279818 139:0.000344761 140:0.000138108 141:0 142:0 143:0.00486455 144:0.0302637 145:0.160764 146:0.167738 147:0.181394 148:0.0423194 149:0.0117496 150:0 151:0 152:0 153:0.0723872 154:0.0677141 155:0.131275 156:0.194286 157:0.0821405 158:0.0182529 159:0 160:0 161:0 162:0.0168766 163:0.0448938 164:0.129962 165:0.231789 166:0.0397439 167:0.0145623 168:6.53085e-005 169:0 170:0 171:0.0241623 172:0.0944907 173:0.204397 174:0.244758 175:0.0156335 176:0.00297471 177:0 178:0 179:0.000484618 180:0.0270659 181:0.0299943 182:0.0176889 183:0.0179169 184:0 185:0.00399858 186:6.09665e-005 187:0 188:0 189:0.0174268 190:0.178731 191:0.111392 192:0.244758 193:0.0560701 194:0.0515878 195:0.00839204 196:0.0680075 197:0.0996831 198:0.229873 199:0.244758 200:0.218049 201:0.151183 202:0.0215929 203:0.00355065 204:0 205:0.0413286 206:0.1116 207:0.244758 208:0.244758 209:0.24009 210:0.244758 211:0.022523 212:0.00930719 213:0 214:0 215:0 216:0.108768 217:0.116702 218:0.0120612 219:0.0235931 220:0.00264587 221:0.0269519 222:0.00138416 223:0.0475575 224:0.0622598 225:0.152318 226:0.244758 227:0.135211 228:0.0663838 229:0.00129202 230:0 231:0 232:0.0296664 233:0.0821483 234:0.244758 235:0.126725 236:0.0915018 237:0.123916 238:0.00544736 239:0.00159712 240:0 241:0 242:0 243:0.0497038 244:0.0539091 245:0.0778671 246:0.107537 247:0 248:0.00023601 249:0 250:0 251:0.000246112 252:0.0141253 253:0.0716424 254:0.0381519 255:0.0285199 256:0.00301812 257:0.0309061 258:0.000304437 259:0 260:0 261:0.0562703 262:0.0522369 263:0.084395 264:0.100867 265:0.0674983 266:0.0628162 267:0.033542 268:0.0219796 269:0.00393197 270:0.0379498 271:0.285209 272:0.196758 273:0.128761 274:0.00238807 275:0.000269012 276:0 277:0 278:0.0280078 279:0.190253 280:0.285209 281:0.285209 282:0.285209 283:0.129594 284:0.0382018 285:0 286:0 287:0 288:0.240413 289:0.159045 290:0.235022 291:0.285209 292:0.151386 293:0.0257875 294:0 295:0 296:0 297:0.0433673 298:0.24093 299:0.118821 300:0.083866 301:0.00202619 302:0 303:0 304:0 305:0.0210059 306:0.169587 307:0.20827 308:0.15784 309:0.263687 310:0.0178892 311:0.00632819 312:0 313:0 314:0 315:0.0723063 316:0.0124826 317:0.00705027 318:0.0119537 319:0.00474153 320:0.00120206 321:0 322:0 323:0 324:0.00780471 
